#include <Wire.h>
#include <LiquidCrystal_I2C.h>
#include "AS726X.h"
#include <math.h>

// Inisialisasi objek sensor dan LCD
AS726X sensor;
LiquidCrystal_I2C lcd(0x27, 16, 2); // Alamat I2C untuk LCD
const int buttonPin = 13;

// Bobot dan bias untuk model 
const double weights_input_hidden1[27][64] = {
  {-0.07079175, 0.00019296, 0.00241274, 0.03753258, -0.00159246, 0.07311647, 0.00583747, 0.00445384, 0.00719681, -0.01411616, 0.00122651, -0.03611688, -0.06208731, 0.01207548, -0.02786893, 0.06163809, -0.01869709, -0.00024749, 0.00005548, -0.00026470, 0.00014332, -0.07656144, -0.00661595, -0.00059975, -0.00007234, 0.00002333, -0.00862072, -0.02660563, -0.00649643, -0.00030011, -0.04070972, -0.00249004, -0.00055703, -0.02759640, 0.00496636, -0.00521360, -0.00254159, 0.02134398, 0.00021744, 0.04443325, 0.00014085, 0.00516941, -0.00034036, -0.01601742, 0.00005027, 0.02760719, -0.01978952, -0.01195080, -0.00784024, -0.03846337, -0.00029710, 0.09912584, 0.00654765, 0.00046348, -0.00065557, 0.06551123, 0.00027499, 0.04103683, -0.00836111, 0.03016246, -0.03169039, -0.00042384, -0.01023291, -0.00001687},
  {-0.02094155, 0.07664222, 0.00035494, 0.08489172, -0.02125916, 0.06539858, -0.00880705, -0.00081937, 0.01391003, 0.08131176, -0.00075144, 0.00234828, 0.01955329, 0.00505722, -0.03622171, 0.02776118, -0.01189483, 0.00003741, -0.00045377, -0.02528631, 0.00002118, 0.00191913, -0.00944732, -0.02452288, 0.00011403, 0.00002889, -0.02289033, 0.03211354, -0.02182244, -0.01958836, -0.09800140, 0.02116059, -0.02028804, 0.03770973, -0.01723890, 0.00788310, 0.03763472, -0.00989651, -0.01924350, 0.04189156, -0.02328639, 0.11891936, -0.02082157, 0.09952084, -0.00002862, -0.08819913, 0.03101706, -0.00322721, 0.06552602, 0.00398529, 0.00000326, -0.03960882, 0.05564385, -0.02139822, -0.02037289, 0.04783475, -0.02075186, -0.03351285, 0.03035064, -0.08848133, -0.01121075, -0.00040046, 0.04686735, -0.00031579},
  {-0.00977149, -0.00520542, 0.00250698, -0.04434288, -0.01899425, -0.05145060, 0.02559888, -0.00550116, 0.01533251, -0.00838740, -0.00506705, -0.00721426, 0.07945878, -0.00217156, -0.00847701, -0.01007052, 0.07877350, -0.00006260, -0.00034868, -0.02306259, 0.00012364, 0.10184947, -0.00476299, -0.02351749, 0.00001531, 0.00002042, 0.04058901, 0.12932251, -0.05957652, -0.01901458, 0.12593064, 0.04435863, -0.01991675, -0.00646013, -0.01035923, -0.00244222, -0.00020123, -0.07801394, -0.01830927, 0.01257368, -0.02230947, -0.01183314, -0.02028059, -0.08463370, -0.00003963, 0.08923764, -0.02842494, 0.01621617, 0.04860550, -0.00771148, 0.00002898, -0.05495836, 0.02107333, -0.02019078, -0.01959768, -0.06751087, -0.02161322, 0.01311284, 0.01352048, 0.04146129, 0.01904056, -0.00035337, -0.02847290, -0.00020984},
  {0.02868330, 0.00967766, -0.00354746, -0.00083927, -0.00481554, -0.00678884, 0.01477374, -0.00496648, 0.00247181, 0.00690167, -0.00280365, 0.01270313, -0.07040776, -0.01848206, 0.08599150, -0.02594982, -0.00879090, 0.00010927, -0.00042214, -0.00383560, 0.00010024, -0.02092155, 0.00037283, -0.00543566, 0.00004090, 0.00002862, 0.00974071, -0.10717313, 0.12260135, -0.00456702, -0.02748813, 0.00980429, -0.00485030, -0.01293421, 0.01201970, -0.02595825, -0.00525461, 0.05132299, -0.00494891, -0.04091895, -0.00417105, -0.15839818, -0.00583844, -0.01854982, -0.00004322, -0.06393834, 0.01033353, 0.00780597, -0.07846144, 0.01102173, 0.00004592, -0.00008325, 0.02010450, -0.00490796, -0.00431953, 0.02364219, -0.00488450, -0.03949922, 0.01979054, 0.03170395, 0.01136874, -0.00029610, -0.01241762, -0.00034137},
  {0.08555742, -0.05858357, -0.00359059, -0.03231630, -0.00307274, -0.00448576, -0.01208005, -0.00569487, -0.00083655, -0.03154425, 0.00177382, -0.02140794, 0.10939084, -0.04873021, -0.02404750, -0.01847741, 0.03709040, -0.00043662, -0.00001437, -0.00189289, 0.00019202, -0.04806795, -0.00558588, -0.00342395, -0.00027366, 0.00004927, -0.02409293, -0.08551832, 0.08048422, -0.00254481, -0.02004736, -0.00156957, -0.00234724, 0.00224855, -0.01062664, -0.00728149, -0.06455365, 0.06777359, -0.00183264, -0.05208207, -0.00184933, 0.05406304, -0.00290494, 0.00310359, 0.00012615, 0.00604327, 0.04127298, 0.00861161, -0.00359787, -0.02391551, -0.00017772, -0.00982679, -0.04274879, -0.00261217, -0.00284158, -0.02485965, -0.00229417, 0.01354315, -0.00502066, -0.00608630, 0.02397611, -0.00036575, -0.02521216, -0.00014698},
  {-0.00311851, -0.02994891, -0.00114332, 0.01096195, -0.00257152, -0.07282541, -0.00932867, -0.00282934, 0.00232523, -0.02250923, 0.00172917, 0.00416548, -0.08589710, 0.05086190, -0.04821084, -0.01550794, -0.03314791, -0.00028377, -0.00022943, -0.00063395, 0.00006709, -0.00305223, -0.00493843, -0.00266671, 0.00001895, 0.00007562, 0.05285228, 0.00574105, -0.03967170, -0.00240898, 0.04500924, 0.00159225, -0.00228126, 0.02459773, 0.04513520, -0.00933578, -0.00279433, 0.02676578, -0.00208556, -0.01265672, -0.00136220, -0.00966954, -0.00358389, -0.00984707, 0.00008832, 0.06742936, -0.01039739, -0.00473856, -0.01004553, 0.00387021, -0.00027309, 0.07859172, -0.01304889, -0.00266947, -0.00272008, -0.02652032, -0.00238295, 0.03981238, 0.02342297, 0.00705472, -0.01593459, -0.00038675, 0.05536323, -0.00018823},
  {-0.01175121, 0.00163870, 0.00183057, 0.00767860, 0.00128413, 0.00422520, 0.00141202, 0.00724746, 0.00105836, -0.00878712, 0.00480231, -0.00092900, 0.00291552, 0.01439074, -0.00747695, 0.00887196, -0.01020493, -0.00032362, 0.00020483, 0.00106905, 0.00008482, 0.00484204, -0.00060416, 0.00070841, -0.00034543, 0.00002018, -0.00426065, 0.00488652, -0.01802496, 0.00106572, 0.00518407, -0.00685354, 0.00137379, -0.00178513, 0.00322673, 0.00404572, -0.00172862, 0.00288163, 0.00255858, 0.01899534, 0.00186575, -0.01236747, 0.00067602, 0.00073692, 0.00001474, -0.00156044, -0.00555760, -0.01057457, 0.00024147, 0.00077141, -0.00025084, -0.00591682, -0.00268329, 0.00173795, 0.00085764, 0.00947896, 0.00046428, 0.01244269, -0.00863031, -0.00922191, -0.01339876, -0.00001618, 0.00837667, -0.00005417},
  {0.01857511, -0.00105589, 0.00357115, -0.00273067, 0.00250697, 0.00643555, 0.00479752, 0.00522350, 0.00430080, -0.00758409, 0.00638706, 0.00033663, -0.01723764, 0.00575796, -0.00544483, 0.00704912, -0.01067467, -0.00029460, 0.00027251, 0.00287105, 0.00005317, 0.00146089, -0.00125209, 0.00258458, -0.00026411, 0.00000614, -0.01843683, 0.00722477, -0.02696798, 0.00228181, -0.00308547, -0.00604034, 0.00285059, -0.00330859, -0.00197580, 0.00896889, -0.00513431, -0.00656212, 0.00395501, 0.00370471, 0.00339947, -0.01223232, 0.00225006, 0.00922375, 0.00006541, 0.00206860, -0.00197177, -0.00547257, -0.00550663, 0.00277850, -0.00015512, 0.00443511, -0.00325831, 0.00286598, 0.00246860, 0.00491460, 0.00218609, 0.00511190, -0.00861027, -0.01453900, -0.00711566, 0.00000707, -0.00169344, -0.00007110},
  {-0.01353348, 0.00188668, 0.00307797, 0.00105807, 0.00244149, 0.00055331, 0.00345389, 0.00235767, 0.00414334, -0.01039128, 0.00258339, -0.00031599, -0.01386799, 0.01098546, -0.00353536, 0.01711622, -0.01059507, -0.00030176, 0.00012666, 0.00284605, 0.00009854, 0.00261006, -0.00146201, 0.00244694, -0.00029592, 0.00000553, -0.01567593, -0.00049201, -0.01601719, 0.00218841, 0.00405175, -0.00475892, 0.00273482, -0.00335595, 0.00118042, 0.00767529, 0.00199208, 0.00161907, 0.00389349, 0.00839339, 0.00325979, 0.01287385, 0.00219806, 0.00006801, 0.00000583, 0.01823890, -0.00758859, -0.00516998, -0.00488637, 0.00190434, -0.00019583, -0.00793264, 0.00249883, 0.00294559, 0.00223787, 0.00554397, 0.00206910, 0.00815053, -0.00961696, -0.00377341, -0.00717509, -0.00006982, 0.00329079, -0.00000668},
  {-0.00208071, -0.00093125, 0.00272812, 0.00075542, 0.00204408, 0.00221999, 0.00371762, 0.00395243, 0.00244546, -0.00837120, 0.00409498, -0.00022866, 0.00055959, 0.00035805, -0.00261218, 0.00530806, -0.00989010, -0.00024964, 0.00022961, 0.00213991, 0.00008296, -0.00104820, -0.00092312, 0.00180179, -0.00030827, 0.00000194, -0.01206175, -0.00526361, -0.02578774, 0.00176285, -0.00535165, -0.00599642, 0.00215899, -0.00509169, 0.00618494, 0.00230557, -0.00457213, 0.00019831, 0.00337179, 0.00276025, 0.00270908, -0.01772605, 0.00156463, -0.00293458, 0.00002633, -0.00083186, -0.00596638, -0.00537987, -0.00509498, 0.00191063, -0.00015454, 0.02359236, -0.00024066, 0.00240631, 0.00177867, 0.01198383, 0.00139198, 0.00173173, -0.00807884, 0.00854917, -0.00946873, 0.00001346, 0.00040225, -0.00006722},
  {-0.00190011, 0.00167337, 0.00148038, 0.00377557, 0.00077850, 0.00470431, -0.00198944, 0.00590067, -0.00071070, -0.00519601, 0.00623661, -0.00023996, 0.01041727, 0.00972916, -0.00312339, 0.00219346, -0.00153338, -0.00039459, 0.00034843, 0.00027294, 0.00010628, 0.00512417, -0.00051332, -0.00009173, -0.00039982, 0.00001970, -0.00584260, 0.00655512, -0.01163034, 0.00057309, 0.01036431, -0.00657672, 0.00085932, 0.00047548, -0.01014916, 0.00059915, -0.00603999, -0.00090504, 0.00217446, 0.02532709, 0.00109597, 0.00053128, 0.00017055, 0.00491219, 0.00003309, -0.01174299, 0.00163958, -0.00519123, -0.00020710, 0.00174730, -0.00016763, -0.01382019, -0.00706051, 0.00118694, 0.00035197, 0.00171920, -0.00012638, 0.00625257, -0.00752040, -0.01289498, -0.00044992, 0.00005736, -0.00046198, -0.00007891},
  {-0.00734947, -0.00080640, 0.00216211, 0.00556918, 0.00109781, 0.00363759, 0.00024243, 0.00792303, 0.00153511, -0.00627943, 0.00742367, 0.00007031, 0.00048938, 0.02104446, -0.00770803, 0.00512704, -0.01249971, -0.00038635, 0.00047535, 0.00054201, 0.00007312, 0.00830902, -0.00077802, 0.00030416, -0.00032924, 0.00001668, -0.00176662, 0.00882234, -0.01701435, 0.00081588, 0.00215498, -0.00746613, 0.00101994, -0.00049613, 0.00120220, -0.00024389, -0.00353380, -0.00390699, 0.00247009, -0.01632947, 0.00145934, -0.00948030, 0.00039337, -0.00250807, 0.00006283, -0.00415046, -0.00637748, -0.00613530, -0.00389982, 0.00226639, -0.00014907, -0.00335989, -0.00544862, 0.00147845, 0.00065428, 0.00799110, 0.00000022, 0.00486434, -0.00767378, -0.00544374, -0.00639869, 0.00002749, 0.00655646, -0.00009214},
  {-0.01155962, -0.01011386, 0.00392972, -0.01851078, 0.00302150, 0.03171565, 0.00764801, 0.00191112, 0.00546925, 0.00607050, 0.00538671, 0.00234650, 0.04902844, -0.00319636, 0.01391696, -0.00610160, -0.00658741, -0.00013857, 0.00003070, 0.00443967, 0.00000847, -0.00841107, -0.00270363, 0.00409760, -0.00003080, -0.00000569, -0.03080943, 0.02324811, -0.08633550, 0.00302049, -0.00641970, 0.00370706, 0.00411394, -0.00670770, -0.01244433, 0.02833714, 0.02197072, -0.02247327, 0.00465283, -0.01452847, 0.00453856, 0.04077838, 0.00328069, 0.03097120, 0.00008736, 0.02442786, -0.00466184, -0.00696833, -0.01655098, 0.00393224, -0.00003635, 0.00269449, -0.00815109, 0.00321108, 0.00379620, -0.02234579, 0.00400072, -0.00686701, 0.00110313, -0.00776168, 0.00051881, 0.00010551, -0.01818849, -0.00023956},
  {-0.01576856, -0.00325554, 0.00355868, -0.01762543, 0.00307016, -0.00524473, 0.00820802, -0.00291207, 0.00662797, 0.00101273, 0.00116496, 0.00130087, 0.02751066, 0.00313610, 0.00442986, -0.00376338, -0.00733981, -0.00020959, -0.00006129, 0.00440735, 0.00005473, -0.01121522, -0.00295699, 0.00382812, -0.00012579, -0.00001022, -0.01948253, -0.02228054, 0.02122748, 0.00295018, 0.00912517, 0.00249314, 0.00390082, -0.00461565, -0.00567244, 0.01210035, 0.01251246, -0.00476136, 0.00467774, 0.00525447, 0.00432406, 0.02412022, 0.00321708, 0.01416298, 0.00004571, 0.01698568, -0.01441843, -0.00096214, -0.01757777, 0.00264001, -0.00003645, 0.00448087, -0.00195152, 0.00333603, 0.00352919, -0.02223710, 0.00367653, 0.00306311, -0.00214544, 0.02684384, 0.00486092, 0.00000966, -0.00829966, -0.00013525},
  {-0.00106070, -0.00821601, 0.00301190, -0.02519322, 0.00270903, 0.00232559, 0.00981243, 0.00005171, 0.00353913, 0.00049897, 0.00316803, 0.00162576, -0.05256138, -0.00617305, 0.00936294, -0.00592459, -0.00942887, -0.00012474, 0.00002667, 0.00375705, 0.00004299, -0.01031135, -0.00199931, 0.00321469, -0.00011263, -0.00001146, -0.01352202, -0.00620211, 0.00554051, 0.00254610, -0.00660466, 0.00139215, 0.00336000, -0.01952691, 0.00830839, 0.00329477, 0.00585036, -0.01720137, 0.00414520, -0.02227980, 0.00384416, -0.01306911, 0.00253055, -0.01679216, 0.00006476, -0.02658014, -0.00559377, -0.00253872, -0.01309612, 0.00290739, -0.00000698, 0.00148666, 0.00051025, 0.00280971, 0.00309984, -0.01628475, 0.00301520, -0.00733093, 0.00094611, 0.01155129, 0.00440469, 0.00010594, -0.01240978, -0.00021414},
  {0.00445028, -0.00414871, 0.00205983, -0.01352900, 0.00123810, 0.00090221, -0.00147638, 0.00270528, 0.00002041, 0.00210140, 0.00680635, -0.00095282, 0.02515408, -0.00751422, 0.00312912, -0.00560275, 0.00390341, -0.00033428, 0.00030755, 0.00125095, 0.00007964, -0.00034232, -0.00111691, 0.00084889, -0.00028549, 0.00000866, -0.01131182, 0.00684346, -0.01589512, 0.00106540, 0.00270860, -0.00446860, 0.00166149, 0.00226364, -0.01865382, 0.00300185, -0.00640745, -0.00321300, 0.00275709, -0.00654515, 0.00184630, -0.00881405, 0.00094064, 0.01662469, 0.00008795, -0.01078890, 0.00744578, -0.00060284, -0.00335011, 0.00087599, -0.00007761, -0.01129062, -0.01276101, 0.00149123, 0.00127848, -0.02314582, 0.00090254, -0.00414929, -0.00356863, -0.00762815, 0.01796183, 0.00012642, -0.01361027, -0.00015707},
  {-0.00948905, -0.00644979, 0.00297138, -0.01333216, 0.00160134, -0.00204291, 0.00190875, 0.00459213, 0.00245805, 0.00128564, 0.00726135, 0.00022739, 0.02469492, -0.01139953, -0.00484211, -0.01770163, -0.01363474, -0.00028805, 0.00034405, 0.00170766, 0.00002889, 0.00482057, -0.00150438, 0.00147941, -0.00012919, 0.00000997, 0.00008121, 0.00558395, 0.02073572, 0.00136376, 0.00023715, -0.00295078, 0.00195831, -0.00448161, -0.00213132, 0.00155455, 0.01950620, -0.01581371, 0.00308170, 0.05364612, 0.00239225, -0.01587695, 0.00112878, -0.01431834, 0.00010207, 0.00894402, -0.01014776, -0.00532941, -0.00742322, 0.00191839, -0.00009002, -0.00864672, -0.01037424, 0.00179259, 0.00169632, 0.00301057, 0.00123156, -0.00559662, -0.00035593, 0.00462389, -0.00379533, 0.00009892, -0.00527860, -0.00019746},
  {-0.00735706, 0.00032329, 0.00490044, -0.01353472, 0.00285626, -0.01591438, 0.00803725, -0.00467334, 0.00721723, -0.00514845, -0.00265278, 0.00011268, 0.02011746, 0.02725749, 0.00764874, 0.01783901, -0.00126798, -0.00023288, -0.00016189, 0.00408107, 0.00011073, -0.01598375, -0.00288064, 0.00334655, -0.00019707, -0.00001656, -0.01787726, 0.00608797, -0.00070835, 0.00263240, 0.00391495, -0.00013725, 0.00348963, -0.01060490, 0.00239637, 0.02464502, 0.01587117, 0.00109500, 0.00443703, 0.00617138, 0.00387264, 0.02176225, 0.00287347, -0.01152453, -0.00001266, 0.00487169, -0.01442998, 0.00202506, -0.01046655, 0.00127865, -0.00006641, -0.02044986, 0.01439630, 0.00320330, 0.00303195, -0.00433101, 0.00312418, -0.00716714, -0.00623954, -0.00853207, -0.00003125, -0.00005972, -0.00070371, -0.00006796},
  {0.02952006, -0.00318342, 0.00302809, -0.01372788, 0.00280060, -0.00714995, 0.00747133, -0.00321987, 0.00432239, -0.00132674, -0.00115361, 0.00103891, -0.04733255, -0.00834287, 0.00971857, -0.00911836, -0.01483760, -0.00016435, -0.00008033, 0.00380665, 0.00009254, -0.01091754, -0.00194130, 0.00307123, -0.00019206, -0.00001656, -0.01197643, 0.01126468, 0.00805208, 0.00251576, -0.00550697, 0.00178957, 0.00321960, -0.00772617, 0.00554956, 0.00267967, 0.00756142, 0.00368225, 0.00420264, -0.00573988, 0.00373752, -0.00787729, 0.00249146, -0.00429582, 0.00001509, -0.00430478, -0.00535031, 0.00072674, -0.01194734, 0.00214198, -0.00002951, -0.00988331, 0.01713793, 0.00296699, 0.00289036, 0.00503937, 0.00277540, -0.00316665, -0.00220097, 0.00990079, -0.00335524, 0.00002397, -0.00467585, -0.00013071},
  {0.00750943, -0.00018151, 0.00170348, -0.00822216, 0.00136333, -0.00370353, 0.00093120, -0.00047494, 0.00060082, -0.00285171, 0.00279439, -0.00083733, 0.00999059, 0.02236353, 0.00525509, -0.01165318, 0.00290530, -0.00037529, 0.00016020, 0.00145818, 0.00012086, -0.00132690, -0.00115766, 0.00090223, -0.00034438, 0.00000710, -0.00999154, -0.00366412, -0.00266645, 0.00114304, 0.00481965, -0.00512989, 0.00170483, 0.00321422, -0.01571459, 0.00257811, -0.00515185, -0.00786697, 0.00289424, 0.04032989, 0.00188286, 0.01019734, 0.00108130, 0.01215884, 0.00004332, -0.01151212, 0.00722647, 0.00324164, -0.00324924, 0.00083207, -0.00010682, -0.01827388, -0.00568125, 0.00172130, 0.00121909, -0.00590659, 0.00093873, 0.00763331, -0.00618121, -0.01281834, 0.00810411, 0.00004602, -0.00657554, -0.00007579},
  {-0.00960318, -0.00421732, 0.00229641, -0.00499911, 0.00181771, -0.00860660, 0.00494663, 0.00065299, 0.00301317, -0.00270144, 0.00306806, 0.00053873, -0.00203364, 0.00150428, -0.00291526, -0.00222970, -0.01219642, -0.00034005, 0.00020946, 0.00200319, 0.00006806, 0.00256983, -0.00154281, 0.00157464, -0.00020137, 0.00000832, 0.00142451, 0.00159478, 0.00183609, 0.00150326, 0.00843934, -0.00095762, 0.00200522, 0.00097979, 0.00622335, 0.00067016, 0.00333471, -0.00548358, 0.00330120, -0.00128780, 0.00248471, -0.00551047, 0.00131310, -0.00826134, 0.00006318, -0.00476260, -0.00685193, 0.00058150, -0.00878889, 0.00203644, -0.00010300, -0.01872408, -0.00183613, 0.00207763, 0.00168668, -0.00259134, 0.00126213, -0.00535279, -0.00328196, 0.00399838, 0.00050782, 0.00000946, 0.00390207, -0.00011198},
  {0.00206768, -0.00923989, 0.00240046, -0.01700472, 0.00315572, -0.01804251, 0.00599714, -0.00066640, 0.00154245, 0.00123454, 0.00047425, 0.00184260, -0.03510603, -0.02187718, 0.01621077, -0.00658822, -0.00670442, -0.00012670, -0.00001588, 0.00412591, 0.00007668, -0.01079752, -0.00105440, 0.00342404, -0.00018149, -0.00001689, -0.00586350, -0.01929861, 0.00850554, 0.00283834, -0.01191347, 0.00099960, 0.00342230, -0.01017101, 0.01153835, -0.00362879, 0.00518696, -0.00532793, 0.00440211, -0.03427830, 0.00416650, -0.03194087, 0.00259563, -0.01681793, 0.00004602, 0.02024422, -0.00199535, 0.00219464, -0.00968675, 0.00292952, -0.00000357, 0.01167943, 0.01086423, 0.00320334, 0.00321901, 0.02557966, 0.00295305, -0.01756875, 0.00008862, 0.02122015, -0.00754951, 0.00011576, -0.00921408, -0.00019893},
  {0.01153201, -0.00274633, 0.00151877, -0.00691467, 0.00130479, 0.00005458, -0.00177793, 0.00113536, -0.00119870, -0.00050614, 0.00429457, -0.00066000, 0.00093475, -0.00312430, 0.00538769, 0.00766139, 0.00338452, -0.00031113, 0.00025180, 0.00124603, 0.00010620, -0.00115403, -0.00063621, 0.00074316, -0.00034281, 0.00000451, -0.00594802, -0.00230171, 0.00029794, 0.00106096, -0.00266049, -0.00450341, 0.00150545, 0.00114587, -0.01036400, -0.00221051, -0.00206475, -0.00599629, 0.00271073, -0.01476826, 0.00179257, 0.00214184, 0.00078644, 0.00020263, 0.00005540, -0.01841273, 0.00691286, 0.00264942, -0.00334041, 0.00098182, -0.00007452, -0.01152322, -0.00866127, 0.00155796, 0.00113144, -0.00019137, 0.00068258, -0.00539269, -0.00417637, -0.00257088, 0.01412016, 0.00013125, -0.01026216, -0.00013735},
  {-0.00914520, -0.00683005, 0.00201593, -0.00586322, 0.00207807, -0.00413054, 0.00128328, 0.00223294, 0.00088775, -0.00036575, 0.00457810, 0.00062354, -0.01230096, -0.00726173, -0.00168986, 0.01126057, -0.01163450, -0.00026722, 0.00029923, 0.00225796, 0.00005737, 0.00242981, -0.00097763, 0.00184282, -0.00020240, 0.00000677, 0.00356017, -0.00036296, 0.00186669, 0.00173933, -0.00295369, -0.00252366, 0.00216285, -0.00161902, 0.00703015, -0.00433026, -0.00209010, -0.00786339, 0.00342554, -0.01597778, 0.00280360, -0.00668677, 0.00133537, -0.00843044, 0.00007181, -0.00603691, -0.00502718, -0.00032509, -0.00837719, 0.00211710, -0.00007658, 0.02826200, -0.00583284, 0.00223988, 0.00193795, 0.02620225, 0.00139504, -0.01124812, 0.00024127, 0.00735933, 0.00041830, 0.00010023, -0.00078092, -0.00017820},
  {0.00752687, 0.00047454, 0.00102630, -0.00194473, 0.00022140, 0.00575271, -0.00609919, 0.00439008, -0.00310573, 0.00005035, 0.00750328, -0.00135571, 0.01965690, -0.01613390, 0.00199910, -0.00692646, 0.00786521, -0.00045214, 0.00041778, -0.00054449, 0.00012875, 0.00517182, -0.00029564, -0.00091906, -0.00043062, 0.00001770, -0.00357081, 0.00798798, -0.01155644, 0.00002865, 0.00302297, -0.00617988, 0.00031610, 0.00469439, -0.02273262, -0.00239243, -0.01188037, -0.00900683, 0.00170894, 0.00133534, 0.00033567, 0.01066701, -0.00040076, 0.00870215, 0.00005180, -0.02998551, 0.01020277, 0.00085415, 0.00115301, 0.00048604, -0.00008660, -0.02353331, -0.01358447, 0.00056431, -0.00016350, -0.01632699, -0.00075659, 0.00326320, -0.00528243, -0.01696465, 0.01354021, 0.00015453, -0.00823323, -0.00012183},
  {-0.00558762, -0.00293670, 0.00144304, -0.00174495, 0.00058473, 0.00293149, -0.00400598, 0.00529464, -0.00132239, 0.00030280, 0.00811257, -0.00104617, 0.00881047, -0.00617279, -0.00183992, -0.00434016, -0.00166628, -0.00041002, 0.00050320, -0.00009850, 0.00009357, 0.00762745, -0.00054397, -0.00043405, -0.00033800, 0.00001545, 0.00197856, 0.00781146, -0.00912882, 0.00033377, 0.00633061, -0.00598784, 0.00057209, 0.00499092, -0.01294893, -0.00358222, -0.01083649, -0.01083569, 0.00201198, -0.01056240, 0.00080496, 0.00320941, -0.00019378, 0.00186601, 0.00007721, -0.01877321, 0.00291812, -0.00000703, -0.00240631, 0.00075195, -0.00008487, -0.01439625, -0.01278981, 0.00088313, 0.00021551, -0.00106906, -0.00048538, -0.00444311, -0.00389288, -0.00810236, 0.00653186, 0.00014272, -0.00296145, -0.00016042},
  {-0.00827127, -0.00583885, 0.00202168, -0.00156409, 0.00116199, -0.00062536, -0.00149250, 0.00673139, 0.00067340, 0.00044790, 0.00828158, -0.00038753, -0.01797752, -0.02541880, -0.00601482, -0.00194921, -0.01314294, -0.00037356, 0.00056731, 0.00068307, 0.00005469, 0.00993347, -0.00075271, 0.00041633, -0.00021729, 0.00001599, 0.00838219, 0.00956735, -0.01040073, 0.00082769, 0.00455076, -0.00545140, 0.00107314, 0.00154103, 0.00620941, -0.00492279, -0.00154495, -0.01427201, 0.00252718, -0.00165447, 0.00158691, -0.01755912, 0.00020379, -0.00652437, 0.00009154, -0.00624460, -0.00696914, -0.00269415, -0.00555966, 0.00131089, -0.00009925, -0.00347132, -0.01245271, 0.00140374, 0.00080866, 0.01140965, 0.00004903, -0.00653897, -0.00160538, 0.00394192, -0.00336317, 0.00011800, 0.00370994, -0.00019992},
};

const double bias_hidden1[64] = {0.00116873, -0.00198269, -0.01132226, -0.00138973, 0.00246005, 0.00185956, -0.01564465, 0.02620450, -0.01924665, -0.00888097, -0.03472956, 0.00196028, -0.00147880, 0.00170692, 0.00158138, 0.00384453, -0.00519449, -0.01847355, -0.01580626, 0.00257221, -0.01455119, -0.00047268, 0.00388760, 0.00270625, -0.00979816, -0.01508537, -0.00136512, 0.00102279, -0.00277374, 0.00285095, 0.00036956, -0.01967242, 0.00243455, 0.00091791, 0.00353314, -0.00111393, -0.00395887, -0.00013653, 0.00216984, 0.00045150, 0.00268933, 0.00195173, 0.00275593, 0.00388211, -0.01319335, 0.00348931, 0.00138097, 0.00856895, 0.00129246, 0.00225646, -0.01960593, 0.00133462, -0.01917003, 0.00270472, 0.00253477, 0.00274104, 0.00249110, -0.00018095, -0.01610256, 0.00184788, 0.00403802, -0.01432029, 0.00059356, -0.02251765};

const double weights_hidden1_hidden2[64][64] = {
  {-0.01569071, 0.00586574, 0.00381868, 0.00878161, -0.00234692, -0.01767670, 0.01228150, -0.00015984, 0.01713763, -0.01941510, -0.00448856, -0.01323752, 0.00923018, 0.00454734, 0.00998333, 0.00284588, -0.02108158, 0.00011005, 0.00272201, 0.01179914, 0.01345715, 0.00715311, 0.00384950, -0.01815659, 0.00269808, -0.00049039, -0.01515753, -0.00392321, 0.00215362, -0.00126582, 0.00721276, -0.00605703, -0.00823598, 0.00052334, 0.00346614, -0.00704412, 0.00738505, -0.01164196, 0.00036158, -0.01114096, -0.01842073, 0.00837273, 0.00093084, 0.01232531, -0.01408639, 0.00028035, -0.00071544, -0.01486298, 0.00531979, -0.00964895, -0.00074990, -0.01077321, -0.01379290, 0.00842767, -0.00255737, -0.00411187, 0.01863102, 0.01513097, 0.00520029, -0.00184183, -0.01653137, 0.00385699, -0.00622612, -0.01559030},
  {0.00152710, -0.00230114, -0.01493165, 0.00318983, 0.00730050, -0.00022319, 0.00114998, -0.00110026, -0.00096916, 0.00292568, 0.00615386, -0.00526124, -0.00015188, 0.00086406, -0.00355514, -0.00751087, 0.00593721, 0.00447052, 0.00673421, 0.00335276, 0.00710826, 0.00351111, 0.00328710, 0.01024974, -0.00667408, 0.00542083, 0.00182605, -0.00861512, -0.00434116, -0.00769999, -0.00880615, 0.00866705, -0.00857015, -0.00870094, -0.00122035, 0.01039437, 0.00576826, 0.01183381, -0.00769504, -0.00805375, 0.00571705, -0.00677073, 0.00362793, -0.00736266, 0.00357123, -0.01502084, -0.00896568, 0.00670232, -0.00092837, -0.00760819, -0.00158308, -0.00215792, 0.00115644, 0.00517359, 0.00323470, -0.01515136, -0.00139493, -0.00528165, -0.00939518, 0.00078985, 0.00243086, 0.00214459, 0.01287482, 0.00089336},
  {-0.00007115, -0.00054419, -0.00081143, -0.00009299, -0.00166893, -0.00058597, -0.00000750, -0.00541480, 0.00483221, 0.00320256, -0.00082478, 0.00888811, -0.00216348, 0.00501651, -0.00243640, -0.00059739, 0.00120603, -0.00325410, 0.00060466, 0.00120251, 0.00273469, -0.00368602, -0.00098438, 0.00146816, -0.00034576, -0.00406741, 0.00101876, -0.00242428, 0.00094207, -0.00364233, -0.00320888, 0.00169033, -0.00067850, -0.00419906, -0.00084018, -0.00501061, -0.00209725, 0.00071759, -0.00457513, -0.00100766, 0.00078238, -0.00120563, 0.00169852, -0.00079742, -0.00480691, 0.00188575, -0.00131778, -0.00059966, -0.00052997, -0.00631275, 0.00267817, 0.00322675, 0.00015852, -0.00325542, -0.00184723, 0.00335902, -0.00136777, -0.00179005, 0.00199811, -0.00073778, -0.00056794, -0.00176299, 0.00143872, -0.00179111},
  {0.00094826, 0.00017202, -0.00260070, -0.00225910, 0.00418153, -0.00182761, 0.00270438, 0.00387927, 0.00596696, 0.00809348, 0.00182005, -0.00304863, -0.00593407, 0.00326142, -0.01313622, -0.00040304, 0.01084527, 0.00002208, 0.00817599, -0.00315493, 0.00766687, -0.00106223, 0.00579580, 0.00811334, 0.00017898, 0.00486118, 0.00864039, 0.00243829, -0.00252749, 0.00323366, -0.00517922, -0.00210743, -0.00144935, 0.00524521, 0.00663354, -0.00391554, -0.00176732, 0.00968425, -0.00259994, -0.00266548, 0.00953690, -0.01081885, 0.00972854, -0.02452325, -0.00757057, -0.00100669, 0.00650802, -0.00759079, -0.00282723, -0.00430896, 0.00696477, -0.00388400, -0.00705096, -0.00559316, 0.00580787, -0.00077332, 0.00242892, -0.02329896, 0.00379833, -0.00612538, 0.00924236, -0.00474635, 0.01204044, 0.00181914},
  {-0.00036767, 0.00022141, 0.00221293, 0.00148121, 0.00069969, -0.00131854, 0.00667808, 0.00129978, -0.00136204, 0.00046196, 0.00352119, -0.00147970, 0.00350604, 0.00212265, 0.00015685, -0.01289007, -0.00033681, 0.00720702, 0.00187853, -0.00251178, 0.00097038, 0.00179553, 0.00009015, -0.00021029, -0.01467016, 0.00033013, 0.00156655, 0.00113995, -0.01095597, 0.00243589, -0.00334754, 0.00358917, 0.00145364, 0.00211674, 0.00006065, 0.00569119, -0.00232787, 0.00005633, -0.00138931, 0.00051919, -0.00032751, -0.00273256, -0.00824862, -0.00388997, 0.00268264, 0.00113303, 0.00447379, -0.00197031, 0.00243326, 0.00359889, -0.00868870, -0.00111114, 0.00267127, 0.00383056, -0.00717751, 0.00106355, 0.00257177, -0.00148911, 0.00259501, 0.00076057, 0.00103640, 0.00019996, -0.00158491, -0.00088745},
  {-0.00469639, 0.00579786, 0.00829478, 0.00595366, 0.01003051, -0.00186943, -0.00374412, 0.00695191, -0.00592126, -0.00061248, -0.00164465, -0.00573674, 0.00568565, 0.00407497, -0.00405489, -0.00399217, 0.00140468, -0.00729922, -0.01820529, -0.00158975, -0.01360613, 0.01703166, -0.02621976, 0.00720658, -0.00666347, -0.01001737, 0.00301505, 0.00896252, -0.00506258, -0.00588950, -0.00730042, -0.00019469, 0.01235696, -0.00459573, 0.00919686, -0.00654532, 0.00172785, 0.01233924, -0.00213717, 0.01103580, -0.00295855, -0.01688616, 0.00628455, -0.01255403, 0.00518066, 0.00955933, -0.00764625, -0.00180442, 0.00896433, 0.01737390, 0.00377416, -0.00297597, 0.00315155, -0.01423360, 0.00556552, 0.00749236, -0.00168119, -0.01033463, -0.00752171, -0.00401980, 0.00097575, 0.00375671, 0.00959474, -0.00940548},
  {-0.00225811, 0.01182690, 0.00035137, -0.00001387, -0.00661658, -0.00479736, -0.00037921, -0.00911661, 0.00397220, 0.00369811, -0.00217352, 0.00430577, -0.00058844, 0.00430641, -0.00252600, -0.00552429, -0.00338512, -0.00061441, 0.00114168, 0.00074852, 0.00720542, -0.00125449, 0.00194877, -0.00114224, -0.00592199, 0.00063132, 0.00132715, -0.00021147, -0.00243595, -0.00449890, -0.00863908, -0.00725451, -0.00340570, -0.00375788, 0.00176816, -0.00309072, -0.00219620, -0.00605848, -0.01120479, -0.00180808, 0.00067738, -0.00912521, 0.00033078, -0.00849147, -0.00422057, 0.00027613, -0.00603551, -0.00353367, -0.00132615, -0.00491352, 0.00075901, -0.00407254, -0.00039610, -0.00210194, -0.00291824, 0.00070868, 0.00112437, -0.00607043, 0.00275292, -0.00338858, 0.00212161, -0.01240284, -0.00721052, -0.00426460},
  {-0.00295744, 0.00172923, 0.00309872, -0.00201888, -0.00574182, -0.00362855, -0.00037175, -0.00278563, 0.00012651, -0.00058260, -0.00365872, 0.00642548, 0.00224771, 0.00348203, -0.00015224, 0.00534588, 0.00118936, -0.00354776, -0.00152771, 0.00122798, 0.00198256, 0.00407580, -0.00164667, 0.00377500, 0.00358379, -0.00264443, -0.00263636, 0.00186362, 0.00233028, -0.00608689, -0.00366773, 0.00183292, 0.00223050, -0.00528406, 0.00428472, -0.00407771, 0.00007104, 0.00032086, -0.00314144, 0.00190081, -0.00043116, -0.00000789, -0.00636991, -0.00180846, 0.00142906, 0.00441162, -0.00800616, 0.00529055, -0.00074079, 0.00031442, 0.00206552, 0.00271674, 0.00627315, 0.00022450, -0.00818822, 0.00296863, -0.00117154, 0.00016383, -0.00142666, 0.00340947, 0.00125038, -0.00432055, 0.00125112, -0.00276311},
  {-0.00227571, 0.00171244, -0.00129881, 0.00395123, -0.00193047, -0.00370697, 0.00089592, -0.00700365, 0.00099684, 0.00140846, -0.00055484, 0.00042713, -0.00016485, 0.00713419, -0.00344467, -0.00044412, 0.00009012, -0.00146735, 0.00232851, 0.00093627, 0.00891424, -0.00097475, 0.00077930, 0.00068152, -0.00155009, -0.00187137, 0.00103971, 0.00047045, -0.00262968, -0.00608497, -0.00857641, -0.00684758, -0.00010910, -0.00457939, -0.00187273, -0.00459742, -0.00301007, -0.00507414, -0.01001315, -0.00208558, -0.00188039, -0.00610092, 0.00125874, -0.01020624, -0.00500767, 0.00154748, -0.00523587, -0.00214066, -0.00050749, -0.00403253, 0.00201727, -0.00250916, 0.00021928, -0.00127802, 0.00049112, 0.00055935, -0.00166553, -0.00788402, 0.00501201, -0.00240414, 0.00220529, -0.00407660, -0.00391181, -0.00228138},
  {-0.00257697, 0.00310019, -0.00412468, -0.00042413, -0.00133204, -0.00306567, 0.00224600, 0.00209704, -0.00281697, -0.00293003, -0.00444902, -0.00545497, 0.00437019, -0.01228796, 0.00356954, -0.00295076, -0.00278147, 0.00791270, -0.00553104, 0.00666695, -0.01327652, -0.00285290, -0.00762578, -0.00152051, -0.00505829, 0.00019178, -0.00541153, -0.00337795, 0.00059969, -0.00892877, 0.00071793, 0.00630151, -0.00650294, -0.00620645, 0.00298396, 0.01130720, 0.00434318, 0.00188359, 0.00216499, -0.00217481, -0.00427803, -0.00394543, 0.00535602, 0.00450526, 0.00980113, -0.00387580, -0.01312123, 0.01009650, -0.00445208, 0.00331729, 0.00023211, -0.00026411, 0.00791982, 0.00119594, 0.00690307, -0.00413488, -0.00053575, 0.00513002, -0.00766012, -0.00207866, -0.00318565, 0.00611413, 0.00566259, 0.00133083},
  {0.00426360, -0.00053540, -0.00018950, -0.00440687, -0.00281101, 0.00401836, 0.00049890, -0.00291709, 0.00328940, 0.00209792, -0.00199219, 0.00415245, 0.00073069, 0.00504405, -0.00523468, -0.00192433, -0.00039998, -0.00157477, 0.00233257, -0.00642644, 0.00006352, -0.00191303, 0.00070265, -0.00037638, 0.00019776, -0.00139680, 0.00123746, -0.00243758, -0.00102702, -0.00255729, -0.00023829, 0.00574270, -0.00276233, -0.00113344, 0.00069422, -0.00304568, -0.00454833, -0.00037081, -0.00037294, -0.00176345, 0.00195697, -0.00128320, 0.00135146, -0.00111525, 0.00145197, 0.00241646, -0.00173734, 0.00831656, -0.00495432, -0.00116147, 0.00212339, -0.00102888, 0.00420386, -0.00078603, -0.00087251, 0.00100614, -0.00232270, -0.00239278, -0.00337046, 0.00072023, -0.00054176, 0.00106043, -0.00067083, -0.00090295},
  {-0.00273817, -0.00092098, -0.00252218, -0.00606425, 0.00249072, -0.00216810, 0.00394692, 0.00697835, -0.00296711, 0.00126889, -0.00175610, -0.00157132, 0.00461673, 0.00071382, 0.01190032, -0.00021116, 0.00382598, 0.00493028, -0.00174308, 0.01146570, 0.00031464, 0.00419955, -0.00026359, 0.00252449, -0.00032893, -0.00172634, -0.00240810, -0.00170900, -0.00168980, -0.00205533, 0.00747504, 0.00219303, -0.00185971, -0.00167372, 0.00007236, 0.00672177, 0.01600762, 0.00361621, 0.00913873, -0.00653938, 0.00691985, 0.00771676, -0.00710047, 0.00430989, -0.00103823, -0.00338362, 0.00462553, -0.00198391, 0.00150596, -0.00867811, -0.00623235, 0.00408749, -0.00254145, 0.00380078, -0.00642065, -0.00207027, -0.00683090, 0.00863013, 0.00121913, 0.00299200, 0.00177669, -0.00853191, -0.00258964, -0.00447527},
  {-0.01748126, 0.00454524, 0.01884414, 0.02759559, 0.01922228, -0.01021420, 0.00086225, -0.00553228, 0.01506233, -0.00751542, 0.01494279, 0.00148462, 0.00664743, 0.01992816, -0.00348318, -0.00409753, -0.01199488, -0.00443285, -0.01833637, -0.00541959, 0.00896144, 0.00197624, -0.02234337, -0.00909206, -0.00109225, -0.02662474, 0.01400238, -0.00594236, -0.00529115, -0.01651804, -0.00158728, -0.00944503, -0.01416392, -0.01355648, -0.00473949, -0.01564135, -0.00106832, -0.01161786, -0.00185656, -0.01893122, -0.01317132, -0.00623671, -0.00184254, 0.00025626, -0.01113918, 0.01338837, -0.01471656, -0.01222380, 0.02592683, -0.01673025, -0.00006734, 0.00266890, -0.00778831, -0.01258491, 0.00251948, 0.00405917, 0.00583217, 0.00050631, -0.01596821, 0.00893063, -0.00341716, 0.02056269, -0.00875608, -0.02684131},
  {0.00766852, 0.00813594, 0.00202214, -0.00369703, -0.01247227, 0.00918420, 0.00190202, -0.00308473, 0.00415414, 0.02162824, 0.00913942, 0.00880633, 0.01244700, -0.00688517, -0.00935656, -0.00436878, 0.01070413, 0.00074300, 0.00813923, -0.00340106, 0.00905877, 0.00472001, 0.00641753, 0.00668481, -0.00054593, -0.00148496, 0.01348248, 0.00454509, -0.00099795, -0.00108857, 0.00506326, -0.00450777, 0.00078776, -0.00150221, 0.00838162, -0.00161350, -0.00122287, 0.00472370, 0.00611797, -0.00419718, 0.01597002, 0.00524972, -0.00222053, -0.00057568, -0.00852598, 0.00462934, 0.00044810, -0.00648818, -0.00928250, -0.00892201, 0.00045176, 0.01302857, -0.00784808, -0.00583197, -0.00412543, 0.00505894, 0.00182387, -0.00141635, -0.00762299, 0.01767515, 0.01782352, -0.02112887, 0.00384896, 0.00591760},
  {-0.00247772, -0.00121130, -0.00635704, -0.00225264, 0.00627170, -0.00283184, 0.00993882, 0.00204660, -0.00213758, -0.00792073, -0.00066911, 0.00714615, 0.00405354, 0.00613398, 0.02299144, -0.00011173, 0.00519294, 0.00454882, -0.01147211, 0.02869903, -0.00661856, 0.00565694, -0.01281993, 0.00050104, -0.00084889, -0.00690253, -0.01407468, -0.00468652, 0.00053644, 0.00175726, -0.00247839, 0.00999237, -0.00115523, 0.00070372, -0.00127068, 0.00115818, 0.03193909, 0.00502148, 0.00115050, 0.00358061, 0.00909729, -0.00531835, -0.00520523, 0.00688532, 0.00518614, -0.00669460, 0.00646469, 0.00045787, 0.00071811, 0.00660704, -0.00920905, 0.01113043, 0.00714941, 0.01034432, -0.00553135, -0.00724869, -0.00605644, 0.01384150, 0.01217178, 0.00695629, -0.00503691, -0.00242868, -0.00187092, -0.00315232},
  {0.00368647, 0.00484638, 0.00226718, 0.00011743, 0.00719246, 0.00700105, -0.00839285, -0.00106248, -0.00410864, 0.00207599, -0.00405321, -0.00477880, 0.00478728, -0.00539993, -0.01472189, -0.00059504, -0.00028064, -0.00744181, -0.00235891, -0.01715524, -0.00054692, -0.00352990, -0.00098867, 0.00468475, 0.00000902, 0.00228352, 0.00865769, 0.00496899, -0.00091201, 0.00341509, -0.00832295, -0.00747876, 0.00567902, 0.00271735, 0.00765689, -0.00927546, -0.00881347, 0.00208774, -0.00421458, 0.00264228, 0.00331354, -0.01108548, 0.00686573, -0.01383727, -0.00347005, 0.00393154, 0.00624312, -0.00419532, 0.00200724, 0.00305966, 0.00484695, 0.00233403, -0.00331618, -0.01299232, 0.00464950, 0.00333004, -0.00603532, -0.01440168, -0.00417131, 0.00035560, 0.00150776, -0.00042036, 0.00343891, 0.00064203},
  {0.00154110, -0.00221101, 0.00200597, 0.01460426, 0.01847148, 0.00315296, 0.00066755, -0.00692543, -0.00963771, -0.00694470, 0.00733537, -0.01348879, 0.00018443, 0.00714286, 0.00221776, -0.00203112, -0.00343563, -0.00028977, 0.00186716, -0.00052338, 0.00735250, -0.00597027, -0.00312019, -0.00068702, -0.00082138, -0.01050553, 0.00302078, 0.00040621, -0.00288475, -0.00634749, -0.00832104, -0.01235583, 0.00154209, -0.00616648, -0.00382256, -0.00572846, 0.00500299, -0.01075289, -0.00710574, -0.00501746, -0.00642502, -0.00339459, -0.00019804, 0.00026907, -0.00799544, 0.00206959, -0.00833063, -0.00724280, 0.01195439, -0.00608650, -0.00400986, -0.00865318, -0.00757946, -0.00652565, 0.00466811, 0.00328797, -0.01039562, 0.00255658, -0.00602011, -0.00113018, -0.00700293, 0.01858312, -0.00965997, -0.00326548},
  {-0.00027742, -0.00128712, 0.00037474, -0.00013998, 0.00162240, -0.00055392, -0.00089186, -0.00093343, 0.00033624, -0.00020577, -0.00148706, -0.00029052, -0.00061727, -0.00038962, 0.00041109, 0.00134462, 0.00078315, 0.00006259, -0.00105495, 0.00076652, -0.00085557, -0.00009195, -0.00017156, -0.00059144, 0.00105793, -0.00008717, -0.00167614, -0.00066951, 0.00134339, 0.00023484, 0.00093840, -0.00064390, -0.00068450, 0.00110447, -0.00040427, -0.00034413, 0.00120011, 0.00086111, -0.00069476, 0.00017930, 0.00120496, 0.00083794, 0.00085600, -0.00024504, 0.00009201, -0.00055415, 0.00102394, -0.00037857, -0.00059988, 0.00080398, 0.00085858, -0.00065190, 0.00058617, 0.00001319, 0.00003772, 0.00077952, -0.00026303, -0.00010907, 0.00096608, -0.00060872, 0.00013386, -0.00183881, 0.00070612, 0.00120384},
  {0.00015802, -0.00183683, -0.00057819, -0.00156039, 0.00060116, -0.00037464, -0.00122398, -0.00021514, -0.00001833, -0.00055191, 0.00003603, 0.00111952, -0.00075560, -0.00024434, -0.00109773, 0.00141861, -0.00077583, -0.00137229, 0.00098938, -0.00176202, -0.00130717, -0.00042834, 0.00037344, -0.00121569, 0.00067349, -0.00009259, -0.00034274, -0.00054280, -0.00059483, 0.00128421, 0.00039250, 0.00087119, 0.00147654, 0.00121000, -0.00016782, -0.00094524, -0.00116435, -0.00050128, 0.00068653, 0.00236240, -0.00160036, 0.00004410, -0.00037581, 0.00116216, -0.00002982, 0.00173167, -0.00246030, 0.00085324, -0.00140351, 0.00271776, 0.00009077, -0.00062406, -0.00099689, 0.00129811, 0.00012875, 0.00220462, 0.00029395, 0.00093165, 0.00198177, -0.00053298, -0.00083180, -0.00054332, -0.00080081, 0.00004471},
  {-0.00095477, 0.00062592, -0.00023969, 0.00322363, 0.00173407, -0.00144060, 0.00630384, 0.00178492, -0.00149662, 0.00231570, 0.00339383, -0.00311962, 0.00315217, 0.00224217, 0.00031414, -0.01550903, -0.00022918, 0.00849870, 0.00101594, -0.00092805, 0.00181761, 0.00247100, 0.00009610, -0.00245329, -0.01596251, -0.00167527, 0.00277177, 0.00057192, -0.01381042, 0.00200118, -0.00333562, 0.00386229, 0.00172338, 0.00213548, 0.00114307, 0.00475213, -0.00317392, -0.00039514, -0.00027688, -0.00076444, -0.00129559, -0.00251120, -0.01206285, -0.00431177, 0.00076170, -0.00077738, 0.00430164, -0.00276728, 0.00087169, 0.00368008, -0.01046068, -0.00185026, 0.00268693, 0.00396192, -0.00749823, -0.00032283, 0.00202934, -0.00176948, 0.00211325, -0.00016231, 0.00125120, 0.00327442, -0.00036283, -0.00127888},
  {-0.00011459, -0.00030914, -0.00010296, -0.00023256, -0.00039533, -0.00004518, -0.00031098, -0.00056961, 0.00008597, -0.00013254, -0.00011016, -0.00027049, -0.00003351, -0.00016979, -0.00008363, -0.00039573, -0.00019391, -0.00018738, -0.00009500, -0.00019591, 0.00045133, 0.00021764, 0.00025451, -0.00024772, 0.00010155, 0.00021534, -0.00006932, -0.00045120, -0.00001301, -0.00013134, -0.00032356, -0.00006768, 0.00000160, -0.00083822, 0.00001385, -0.00021867, -0.00007390, -0.00044555, -0.00015088, 0.00002665, -0.00030433, -0.00040907, 0.00003354, -0.00010130, -0.00008956, 0.00038760, -0.00073787, 0.00028457, 0.00026803, -0.00014505, -0.00015119, -0.00026313, 0.00048624, 0.00011679, -0.00021495, -0.00006970, -0.00029456, 0.00005699, -0.00020940, 0.00029726, -0.00046836, 0.00052095, -0.00020705, 0.00022967},
  {-0.00143116, -0.00296744, -0.01480262, -0.00820658, -0.00472245, -0.00027973, -0.00852116, -0.01122308, 0.00895440, 0.00433386, 0.00175830, 0.00710685, -0.00548411, 0.00685463, 0.00391373, 0.01451627, 0.00720846, -0.00872153, 0.00300351, 0.00273071, 0.01047527, -0.00316323, 0.01039758, 0.00592567, 0.01356563, 0.00577609, -0.00131166, -0.01991571, 0.01930054, -0.02095278, -0.00572770, 0.01472706, -0.01916093, -0.02201465, -0.00638280, -0.00284291, 0.00264729, -0.00057790, -0.00714647, -0.01575923, 0.00795542, 0.00216672, -0.00142512, 0.00337531, 0.00694355, -0.01394948, -0.01116985, 0.01087100, -0.00598198, -0.01738846, -0.00165998, 0.01216139, 0.00459036, 0.01355472, 0.00223920, -0.01445493, 0.00236192, 0.00463648, 0.00242983, 0.00548970, 0.00400248, -0.00636060, -0.00606569, -0.00303115},
  {-0.00349110, 0.00282975, 0.00513884, -0.00294108, 0.00317803, -0.00381969, -0.00079129, 0.00117632, -0.00620116, -0.00265327, -0.00450878, 0.00081845, 0.00726386, -0.00024091, 0.00724745, 0.00281754, -0.00030138, -0.00103319, -0.00836820, 0.01122708, -0.00518064, 0.00411746, -0.00428546, 0.00066595, 0.00291398, -0.00257485, -0.00278406, 0.00409762, 0.00272405, -0.00225762, 0.00304248, -0.00193700, 0.00376577, -0.00007347, 0.00304060, 0.00151517, 0.01053809, 0.00754994, 0.00187581, 0.00259178, 0.00261140, 0.00133290, -0.00755097, 0.00229912, 0.00033059, 0.00465292, -0.00151167, 0.00206383, 0.00112533, 0.00471862, -0.00038882, 0.00117743, -0.00248669, 0.00094573, -0.00664676, 0.00553919, -0.00133831, 0.00547700, -0.00107494, 0.00039450, -0.00073946, -0.00387463, 0.00035819, -0.00125792},
  {-0.00058258, 0.00184046, 0.00161227, 0.00379070, 0.00092612, -0.00029994, 0.00619635, 0.00195187, -0.00008380, 0.00262259, 0.00416085, -0.00141915, 0.00494277, 0.00248406, -0.00246685, -0.01396207, -0.00040702, 0.00645308, 0.00274471, -0.00144576, 0.00315215, 0.00170036, -0.00090211, -0.00059888, -0.01457934, 0.00151909, 0.00312130, -0.00052637, -0.01416093, 0.00329645, -0.00187122, 0.00191898, -0.00006122, 0.00194237, 0.00122764, 0.00628251, -0.00230686, 0.00061160, -0.00207449, 0.00001906, -0.00185959, -0.00050350, -0.01119736, -0.00443640, 0.00213861, -0.00019102, 0.00194774, -0.00097733, 0.00187907, 0.00092467, -0.00967157, -0.00209489, 0.00235710, 0.00422563, -0.00868540, 0.00179436, 0.00167839, -0.00119730, 0.00177296, 0.00213002, 0.00137935, 0.00200128, -0.00015147, -0.00098894},
  {0.00153438, -0.00031374, -0.00148003, -0.00126890, -0.00040811, 0.00106373, -0.00145828, -0.00002621, -0.00099037, 0.00093544, 0.00023067, 0.00079623, -0.00077743, -0.00042091, -0.00048465, 0.00023567, 0.00057581, -0.00042779, 0.00007585, 0.00009826, -0.00064932, -0.00061293, -0.00092120, 0.00047236, -0.00038779, 0.00167481, 0.00014235, -0.00106543, -0.00032531, 0.00021483, 0.00129077, -0.00025943, -0.00049215, -0.00009096, -0.00012049, -0.00029828, 0.00003698, 0.00126410, 0.00213540, 0.00016558, 0.00135617, 0.00006867, 0.00121880, 0.00131020, 0.00183151, -0.00171150, 0.00051087, -0.00076718, -0.00092188, 0.00054815, 0.00010040, 0.00037590, 0.00004673, -0.00075112, 0.00018756, -0.00001572, -0.00174141, 0.00038654, 0.00017533, -0.00061070, 0.00085040, -0.00018753, 0.00035393, 0.00049451},
  {-0.00008200, 0.00015160, -0.00003696, -0.00007590, -0.00025035, 0.00004821, -0.00006709, 0.00019003, 0.00020962, -0.00000657, -0.00017042, -0.00006142, -0.00009619, 0.00012514, 0.00019734, 0.00009280, 0.00010245, 0.00004441, 0.00011251, 0.00004611, 0.00016485, 0.00011630, 0.00015397, 0.00007346, -0.00005136, 0.00009602, -0.00014796, -0.00004360, 0.00000049, -0.00009167, 0.00018126, -0.00011991, 0.00002114, 0.00002341, -0.00001770, 0.00009887, -0.00016048, -0.00005819, -0.00009142, -0.00008577, 0.00008980, 0.00013123, -0.00000914, -0.00007201, 0.00004310, 0.00011819, 0.00005545, -0.00014484, -0.00001549, -0.00001594, -0.00000410, -0.00015375, 0.00012542, 0.00011656, 0.00000455, -0.00004186, 0.00000623, -0.00013672, 0.00006489, -0.00018979, 0.00007829, -0.00006091, -0.00005250, 0.00013088},
  {0.00238878, -0.00047543, -0.00537065, -0.00568472, -0.03166640, 0.00006859, 0.00658985, -0.00798035, 0.00236653, 0.00746025, 0.00710560, 0.01127381, 0.00022225, -0.00064728, -0.00365243, 0.01100384, 0.00028280, 0.00251406, 0.01188889, -0.00463604, 0.01266753, -0.00580064, 0.00075251, -0.00374996, 0.01281630, 0.00820264, 0.00602939, 0.00020992, 0.01333722, -0.00092571, 0.00532955, 0.00277814, 0.00125457, -0.00218374, 0.00232679, -0.00344327, -0.01227670, -0.01257741, -0.00216880, 0.00103984, -0.00046871, 0.01151736, -0.00231957, 0.00651796, -0.00498042, -0.00651434, -0.00933582, -0.00459409, -0.02116996, 0.00679211, 0.00877697, 0.00849622, -0.00331136, 0.00012701, -0.00295248, -0.00567045, 0.00750075, -0.00169506, 0.00118605, 0.00492171, 0.01017484, -0.01695262, -0.00383036, 0.00502452},
  {0.00724872, 0.00131018, -0.00691683, 0.00102628, -0.00102437, 0.01232024, -0.00280949, -0.00275370, -0.00809363, 0.01369267, 0.00994753, 0.00498184, 0.00230363, 0.00322059, -0.00506096, -0.01071067, 0.00278065, 0.00511358, 0.00161731, 0.00017363, 0.00440188, -0.00332628, 0.00151689, 0.00637992, -0.01082844, 0.00031291, 0.00195734, -0.01321380, -0.00742130, -0.01273437, -0.00373140, 0.00724633, -0.01326298, -0.01206557, -0.00131180, 0.00514160, 0.00117444, 0.00305950, -0.00069980, -0.00625237, 0.00528076, -0.00064517, 0.00116135, -0.00125112, 0.00213268, -0.00798984, -0.01074974, 0.00603146, 0.00087519, -0.00695650, 0.00266192, 0.00395446, 0.00191466, 0.00226579, 0.00452367, -0.00901714, -0.01224675, -0.00108742, -0.01154778, 0.00515139, 0.00610142, -0.00513708, 0.00607372, 0.00546538},
  {-0.00609570, -0.00266604, -0.00134518, 0.00893409, 0.00613686, -0.00632413, 0.00679161, -0.01873969, 0.00776429, -0.00868772, 0.00113903, -0.00977152, -0.00236126, 0.01764551, -0.00333637, -0.00099613, -0.00708862, -0.00005708, 0.00302757, 0.00830707, 0.00854507, -0.00734623, -0.00093819, 0.00089235, -0.00458695, 0.00158768, -0.00182045, -0.00203719, -0.00088771, 0.00445679, -0.03515080, -0.01429403, -0.00030421, 0.00454668, -0.00508863, -0.00824761, 0.01357072, -0.00464731, -0.02785624, 0.00086798, -0.00803449, -0.02398523, 0.00518182, -0.00266432, -0.01249754, -0.00612832, 0.00891620, -0.01426987, 0.01075394, 0.00066500, 0.00100620, -0.00863828, -0.01206103, 0.00342447, 0.00818434, -0.00420095, 0.00561319, 0.00190586, 0.00841996, -0.00556889, -0.01044086, 0.00556632, -0.00564056, -0.00658759},
  {-0.00054064, 0.00013319, 0.00015415, 0.00249792, 0.00141901, -0.00190836, 0.00752840, 0.00163290, -0.00100195, 0.00160997, 0.00428848, -0.00222349, 0.00352939, 0.00186170, 0.00038789, -0.01214952, -0.00090901, 0.00763049, 0.00410460, -0.00224180, 0.00268609, 0.00455953, -0.00017958, -0.00081474, -0.01355351, 0.00070339, 0.00270559, 0.00025102, -0.01170286, 0.00243356, -0.00167028, 0.00162430, 0.00075464, 0.00289852, 0.00127600, 0.00338313, -0.00263978, 0.00225383, -0.00072164, -0.00052689, -0.00080903, -0.00141486, -0.00900538, -0.00013731, 0.00028972, -0.00118945, 0.00345044, -0.00461771, 0.00303131, 0.00130800, -0.00803797, -0.00171508, 0.00167868, 0.00341987, -0.00722804, 0.00049087, 0.00126511, 0.00111780, 0.00174724, 0.00119197, 0.00252031, 0.00085246, -0.00261606, -0.00118457},
  {0.00662496, -0.00033672, 0.00358698, 0.00240378, -0.00836815, 0.00436058, 0.00359168, -0.00891400, 0.00324773, 0.00409565, 0.01384356, 0.02218616, 0.00512371, 0.00771553, -0.00002899, 0.00264575, 0.00442885, -0.00308374, -0.00352129, 0.00249461, 0.00716310, 0.00056476, -0.00772056, 0.00403249, 0.00611349, -0.00908381, 0.00332470, -0.00290771, 0.00474485, -0.01036097, 0.00479053, -0.00088788, -0.00514054, -0.01101407, -0.00331168, -0.00617636, 0.00045536, -0.00685304, 0.00289884, -0.00120801, 0.01075752, 0.00807553, 0.00028046, 0.00886238, 0.00021347, 0.00128730, -0.01521349, 0.00500110, -0.00919314, 0.00380677, -0.00191195, 0.02177519, 0.00722676, -0.00256380, 0.00221279, -0.00041925, 0.00066091, 0.00854891, 0.00109355, 0.02101045, 0.00463190, -0.00936794, -0.01008454, 0.00089680},
  {0.00370259, 0.00483816, -0.00702835, -0.00090289, -0.00767072, 0.00699806, 0.00177272, 0.00108125, -0.00565692, -0.00406853, -0.00255177, -0.00468522, 0.00429697, -0.00276459, -0.00074790, -0.00637415, -0.00816656, 0.00625925, -0.00095341, -0.00145598, -0.00080701, -0.00001813, -0.00151484, -0.00700914, -0.00641247, 0.00281441, -0.00155205, -0.00007785, -0.00037067, -0.01161746, -0.00244833, 0.00192675, 0.00170367, -0.01113154, 0.00556914, 0.00512636, -0.00960456, -0.00636445, -0.00317166, -0.00065836, -0.00825648, -0.00413575, -0.00099636, -0.00198358, 0.00187007, -0.00296891, -0.00897902, -0.00295965, 0.00020406, 0.00047984, -0.00442775, -0.00335650, -0.00077621, 0.00362939, 0.00124215, -0.00363593, -0.00863646, -0.00188543, -0.00572388, -0.00246409, -0.00163196, -0.00119078, -0.00732350, 0.00249774},
  {-0.00431532, -0.00089559, 0.00039817, 0.00418170, 0.00150365, -0.00393350, 0.00683002, 0.00136861, -0.00217302, 0.00299438, 0.00425342, -0.00007306, 0.00429325, 0.00051593, -0.00045568, -0.01237441, 0.00066567, 0.00777612, 0.00131342, -0.00077870, -0.00045668, 0.00266573, -0.00116585, 0.00092362, -0.01430566, 0.00037347, 0.00418521, -0.00003581, -0.01202131, 0.00266259, -0.00214131, 0.00120055, -0.00025791, 0.00338973, -0.00035807, 0.00637260, -0.00118957, 0.00047524, -0.00218791, -0.00040860, -0.00186815, -0.00140222, -0.00919433, -0.00295211, 0.00186370, -0.00239976, 0.00466430, -0.00140642, 0.00063561, 0.00255848, -0.00898585, -0.00123240, 0.00326411, 0.00432624, -0.00656623, -0.00009232, 0.00079210, 0.00138103, 0.00158248, 0.00266470, 0.00284643, 0.00120574, -0.00072384, -0.00025605},
  {-0.00342766, -0.00541752, 0.00345475, 0.00169500, -0.00038775, -0.00659561, 0.00243988, 0.00278404, 0.00874594, 0.00622412, 0.00088201, 0.00302728, -0.00590563, 0.00507627, -0.00310389, 0.00052634, 0.00453079, -0.00403100, 0.01267991, -0.00378447, 0.01148203, -0.00221081, 0.01012122, 0.00079104, 0.00366836, 0.00255193, 0.00323365, 0.00038217, 0.00037592, 0.00055143, 0.00717906, 0.00028594, -0.00884276, 0.00091124, -0.00068345, -0.00725979, -0.00422209, 0.00160641, 0.00450765, -0.01006093, 0.00330567, 0.00737790, 0.00153657, 0.00175110, -0.01065169, 0.00493162, 0.00324426, -0.00679390, 0.00091057, -0.01335596, 0.00387416, -0.00407990, -0.01010699, -0.00480960, 0.00019215, 0.00214243, 0.00587251, 0.00105187, 0.00074726, -0.00799262, 0.00410437, 0.00174807, 0.00506466, -0.00008048},
  {0.00936779, -0.00396210, -0.00288198, -0.01727913, -0.01564636, 0.00681242, 0.00551725, 0.00034531, -0.00148804, 0.00837751, 0.00055243, 0.00211882, -0.00638754, -0.01352268, -0.00252830, -0.00380438, 0.00602323, 0.00805164, 0.01766957, -0.00745241, 0.00226835, 0.00293277, 0.01194102, 0.00266174, -0.00276200, 0.01101282, -0.00424814, 0.00516939, -0.00338130, 0.00683559, 0.00924288, -0.00159040, 0.00387317, 0.00561112, -0.00524465, 0.01207036, -0.00150712, 0.00404177, 0.00718867, 0.00311228, 0.00869221, 0.01093993, 0.00179109, 0.00659471, 0.00182882, -0.00126146, 0.00785164, 0.00396181, -0.02119948, 0.00231845, -0.00214526, -0.00380125, 0.00205421, -0.00028988, 0.00135896, 0.00112591, -0.00352310, 0.00055689, 0.00216290, -0.00213042, 0.00616914, -0.01511321, 0.00436363, 0.01249522},
  {-0.00423183, 0.00544087, 0.00672525, 0.00463884, -0.00217366, -0.00252492, 0.00029860, 0.00063402, 0.00631955, 0.00475024, 0.00176185, 0.01130972, 0.00232052, 0.01059346, 0.00080510, 0.00158475, 0.00021228, -0.00483669, 0.00118027, -0.00109840, 0.00802838, 0.00053510, -0.00156711, 0.00134074, 0.00024238, -0.00310660, 0.00147979, 0.00156999, 0.00357846, 0.00034284, -0.00481260, -0.00367365, -0.00213008, 0.00286440, 0.00383538, -0.01131830, -0.00065534, 0.00135764, -0.00376510, -0.00003668, 0.00016471, -0.00209466, -0.00130847, -0.00254262, -0.01171663, 0.00539851, -0.00536072, -0.00387080, 0.00340823, -0.00213527, 0.00371893, 0.00551061, -0.00325524, -0.00483688, -0.00040541, 0.00456114, 0.00489053, 0.00096472, 0.00572633, 0.00139077, 0.00361591, -0.00265649, 0.00042228, -0.00627604},
  {0.00476296, 0.00748482, -0.00407677, 0.00283149, -0.00613756, 0.00747219, 0.00303757, -0.00433788, -0.00842317, 0.00071635, -0.00230991, -0.00486022, 0.01049348, -0.00717781, -0.00458024, -0.00253668, -0.00723700, -0.00002487, 0.00324780, -0.00203352, -0.00667527, 0.00378944, 0.00186581, -0.00968306, -0.00529810, 0.00683290, -0.00201266, 0.00211446, 0.00050646, -0.00378516, -0.00851635, -0.00448862, 0.00288553, -0.00081300, 0.01748640, 0.00281615, 0.00146177, -0.00240654, -0.00891373, 0.00339150, -0.00867223, -0.00880710, 0.00340016, -0.00951787, 0.00212332, 0.00077813, -0.00384006, 0.00307416, -0.00007000, 0.00151027, 0.00010336, 0.00119674, -0.00143451, 0.00369493, 0.00229391, 0.00164110, -0.00314660, -0.00573518, -0.00001997, 0.00336238, 0.00399044, -0.00720974, -0.00218731, 0.00482008},
  {-0.01062026, 0.01452255, 0.00601642, -0.00020490, -0.00775202, -0.01368131, 0.01118974, -0.01389893, 0.00763225, -0.00203252, -0.01164241, -0.00857615, 0.01290018, -0.00672960, -0.00461665, -0.00148348, -0.01305201, 0.00465981, 0.00247565, 0.00645366, -0.00406507, 0.01289455, -0.00030508, -0.00351130, -0.00104923, 0.00430791, -0.00398595, 0.01048759, -0.00152315, -0.00180782, -0.01380709, -0.02126049, -0.00150111, -0.00079550, 0.01256124, 0.00100440, 0.00104659, 0.00289086, -0.01797684, 0.00035994, -0.01333146, -0.00573816, 0.00294896, 0.00055271, -0.00701352, 0.00664754, -0.00453142, -0.00459580, -0.00462982, 0.00069516, 0.00375162, -0.00778895, -0.00699410, -0.00422136, 0.00066188, 0.00819039, 0.01140730, -0.00035903, 0.00051819, -0.00153567, -0.00218637, -0.00170591, 0.00246303, -0.00776595},
  {-0.00067975, -0.00070245, 0.00215926, 0.00191207, 0.00371178, -0.00097512, 0.00503517, 0.00254836, 0.00001281, 0.00298828, 0.00440982, -0.00072755, 0.00296073, 0.00205762, -0.00289684, -0.01184243, 0.00090462, 0.00609026, 0.00105767, -0.00278449, 0.00201238, 0.00152497, 0.00051337, -0.00005268, -0.01332538, 0.00039240, 0.00312067, 0.00073819, -0.01156500, 0.00150698, -0.00301913, 0.00215141, 0.00139881, 0.00148213, 0.00051122, 0.00463840, -0.00128343, -0.00076852, -0.00171121, 0.00001683, -0.00115587, -0.00250592, -0.00864031, -0.00375464, 0.00196156, -0.00130740, 0.00420840, -0.00298137, 0.00317902, 0.00193324, -0.00763772, 0.00076513, 0.00166951, 0.00414979, -0.00692909, 0.00076107, 0.00107529, -0.00224433, 0.00249653, 0.00124980, 0.00231279, 0.00209393, -0.00163201, 0.00070665},
  {0.00421761, 0.00558946, -0.00275325, 0.00229645, -0.00131512, 0.00879047, -0.00061100, 0.00886153, -0.00343730, 0.01570266, 0.01116187, 0.00758767, 0.01019827, 0.00349184, -0.00630461, -0.00759089, 0.01433638, -0.00609342, -0.00428726, -0.00700213, -0.00263092, 0.00934064, -0.01652513, 0.01165447, -0.00406790, -0.00692962, 0.01504046, 0.00227080, -0.00865875, -0.00821203, 0.00116664, 0.00075068, -0.00184333, -0.00652289, 0.01154478, -0.01179710, -0.00619502, 0.00975825, 0.00908200, -0.00222326, 0.01239978, -0.00226334, 0.00160341, -0.00740377, -0.00618117, -0.00107016, -0.00375837, -0.00844482, 0.00272903, -0.00230100, 0.00312894, 0.01425019, -0.00684676, -0.02106052, 0.00318289, -0.00045454, -0.01373985, -0.00483746, -0.01894543, 0.01130980, 0.01375550, -0.00790375, 0.01000534, 0.00082073},
  {-0.00264455, -0.00116540, 0.00083419, 0.00229668, -0.00113359, -0.00332459, 0.00774953, 0.00222780, 0.00099608, 0.00224069, 0.00573905, -0.00067196, 0.00337665, 0.00204395, -0.00263755, -0.01337722, -0.00063336, 0.00748246, 0.00402440, -0.00240385, 0.00307987, 0.00185065, 0.00133253, -0.00119031, -0.01538552, 0.00041308, 0.00303612, 0.00029036, -0.01393481, 0.00208747, -0.00348944, 0.00264539, -0.00023132, 0.00286978, 0.00077469, 0.00423752, -0.00289979, -0.00191469, -0.00037021, 0.00005459, -0.00080211, -0.00306095, -0.00915475, -0.00257978, 0.00101956, -0.00035426, 0.00392091, -0.00120044, -0.00020670, 0.00145210, -0.00883946, -0.00095746, 0.00159725, 0.00379493, -0.00744822, 0.00042060, 0.00384642, -0.00202464, 0.00178716, 0.00206491, 0.00343976, 0.00164731, -0.00244639, -0.00035670},
  {-0.01103644, 0.00197201, 0.02369517, 0.01447873, 0.00591100, -0.00419982, -0.00201454, 0.00201284, 0.00955772, 0.00290192, 0.01494317, 0.00165701, 0.00003565, 0.01007676, 0.00363250, -0.00676683, -0.00769652, -0.00991046, -0.01197321, -0.00977595, 0.00731997, -0.00015609, -0.01117098, -0.00681206, -0.00685138, -0.02139040, 0.00928137, 0.00826327, -0.00660837, -0.00597926, 0.00016724, -0.00984614, -0.00744192, -0.00633746, 0.00100331, -0.01603220, -0.00625001, -0.00411165, -0.00036979, -0.01660751, -0.00605495, 0.00294988, 0.00019989, 0.00281694, -0.00927317, 0.02056486, -0.00166989, -0.01118413, 0.01527594, -0.01418115, 0.00125813, 0.00565203, -0.00897459, -0.01839503, 0.00452044, 0.01825318, 0.00106697, 0.00765843, -0.01217569, 0.00819448, 0.00397262, -0.00043906, -0.00313884, -0.01805637},
  {0.00042706, -0.00021694, 0.00162392, 0.00194142, 0.00048572, -0.00172400, 0.00857133, 0.00176268, -0.00026634, 0.00084748, 0.00384430, -0.00203906, 0.00351761, 0.00092255, -0.00023111, -0.01289459, 0.00038240, 0.00720205, 0.00254811, -0.00226036, 0.00106712, 0.00464940, -0.00100724, -0.00068428, -0.01386995, 0.00119475, 0.00219988, -0.00092385, -0.01135402, 0.00304421, -0.00261578, 0.00221396, -0.00022039, 0.00166152, -0.00014198, 0.00397825, -0.00241616, 0.00012217, -0.00151183, 0.00041129, -0.00024905, -0.00276808, -0.00876528, -0.00264051, 0.00219955, 0.00079077, 0.00326867, -0.00358654, 0.00267215, 0.00290288, -0.00764358, -0.00077548, 0.00452832, 0.00269743, -0.00645802, 0.00000989, 0.00255894, -0.00017648, 0.00102688, 0.00017648, 0.00291193, 0.00056142, 0.00181269, -0.00033874},
  {-0.01675414, -0.00020753, 0.00511209, -0.00686212, 0.00432619, -0.01417732, 0.00499021, 0.00077417, 0.01326136, 0.00277006, -0.00201010, -0.00542133, 0.00796211, -0.00460290, -0.00166898, 0.00160326, 0.00158803, -0.00467417, -0.00384306, 0.00842073, 0.00355433, 0.00395206, -0.00254870, 0.00533726, 0.00093567, -0.00605777, 0.00189364, 0.00591028, 0.00082561, -0.00646643, -0.00030428, 0.00056795, -0.00236014, -0.00502165, 0.00386039, -0.00295368, 0.01432107, 0.00116337, 0.00135646, -0.00835383, 0.00520110, 0.00643237, -0.00004867, 0.01269720, -0.00289132, 0.00635089, -0.01032159, 0.00001619, -0.00025841, -0.01011196, 0.00037200, 0.00251660, -0.00407097, -0.00280577, -0.00268525, 0.00637084, 0.00910182, 0.01013853, -0.00726635, -0.00081180, 0.00156173, -0.00497867, 0.00072572, -0.01875882},
  {-0.00022047, 0.00004004, -0.00001910, 0.00016060, -0.00016494, -0.00055001, 0.00049116, 0.00072517, 0.00018556, 0.00008908, 0.00046703, 0.00024766, 0.00060805, -0.00026846, 0.00088276, 0.00037524, -0.00039021, 0.00021312, -0.00005928, 0.00044117, -0.00026524, 0.00030255, -0.00000535, -0.00019117, 0.00025757, -0.00020804, 0.00011060, 0.00046144, -0.00001229, 0.00097275, -0.00003285, 0.00046924, -0.00051596, 0.00173879, 0.00047680, -0.00020207, -0.00028808, 0.00020193, 0.00036057, -0.00017777, 0.00030139, 0.00066658, -0.00022497, 0.00014575, 0.00013125, -0.00055013, 0.00059469, -0.00018514, 0.00020725, -0.00083992, -0.00024731, 0.00103214, -0.00040524, 0.00037272, -0.00008620, 0.00055600, 0.00032482, 0.00046604, 0.00063052, 0.00007942, 0.00002788, 0.00030072, 0.00038497, -0.00050550},
  {0.01214826, 0.00541449, -0.00075367, 0.00877216, -0.00144419, 0.01239733, -0.00477088, -0.00606546, -0.01279409, 0.00483592, 0.00477810, 0.01074098, 0.00345329, -0.00555293, -0.02489762, -0.00292007, -0.00098463, 0.00070578, -0.00074807, -0.01696119, -0.00269423, -0.00476890, 0.00101492, -0.00656413, -0.00170995, 0.00231587, 0.00585904, 0.00631653, -0.00411512, 0.00307508, -0.00113892, -0.01665429, 0.00359487, 0.00333079, 0.00811018, -0.00286557, -0.00407963, -0.01035635, -0.00256386, 0.00305632, -0.00421689, 0.00318454, 0.00510779, 0.00354611, -0.00200753, 0.00169819, 0.00582798, -0.00223238, -0.00223284, 0.00084850, -0.00336976, 0.00897976, -0.00246621, -0.01044687, 0.00736850, 0.00765943, -0.01018454, -0.00103810, -0.00066825, 0.01002912, 0.01301336, -0.00288903, -0.00854640, 0.01075623},
  {-0.01471246, 0.00175155, 0.00542257, 0.00345747, 0.00744166, -0.01927358, 0.00443749, 0.00736598, 0.00858152, -0.00382963, -0.00627296, -0.01209791, -0.00119178, 0.00963794, 0.00547048, 0.00138982, -0.00547906, -0.00440383, 0.00583956, -0.00235412, 0.00386778, 0.00375597, 0.00187240, -0.00300689, 0.00225950, 0.00220753, -0.00374243, 0.00008860, -0.00064799, 0.00362388, 0.00373647, 0.00180086, -0.00622376, 0.00203625, 0.00841471, -0.01202555, -0.00260332, 0.00470827, 0.00155310, -0.00639827, -0.01185660, 0.00062822, 0.00218254, 0.00176635, -0.01152131, 0.00438156, 0.00213658, -0.01190246, 0.00948838, -0.00619273, 0.00177473, -0.01677146, -0.00709275, -0.00401964, 0.00175982, 0.00282499, 0.00651687, 0.00163311, -0.00061141, -0.01737417, -0.00633371, 0.01579977, 0.00723734, -0.01092485},
  {0.00318394, -0.00163914, -0.00561623, 0.00363750, 0.00502498, 0.00029871, -0.00183494, 0.00200970, 0.00038694, -0.00236376, 0.00261072, -0.00621388, -0.00480679, 0.00007296, 0.00002635, -0.00315078, -0.00138413, 0.00266239, 0.00304884, -0.00112018, 0.00209866, -0.01003302, 0.00417087, -0.00184416, -0.00370224, 0.00246657, 0.00049878, -0.00433959, -0.00176434, 0.00427619, 0.00182620, -0.00131487, -0.00416596, 0.00381449, -0.00598830, 0.00215755, -0.00074521, -0.00257995, 0.00180927, -0.00478321, 0.00021007, -0.00138935, 0.00531072, 0.00328232, 0.00069332, -0.00745986, 0.00746221, -0.00454361, 0.00160586, -0.00410992, -0.00447240, -0.00520171, -0.00299966, 0.00398807, 0.00682522, -0.00526849, 0.00138935, 0.00111695, 0.00188790, -0.00291582, -0.00189161, 0.00423686, -0.00463265, 0.00449210},
  {-0.00084605, -0.00157086, 0.00347513, 0.00156773, -0.00090981, -0.00070729, -0.01634337, -0.00183913, 0.00291886, 0.00386070, 0.00065505, 0.00469743, -0.00531817, 0.00439113, -0.00275965, 0.01172112, 0.00001359, -0.01317184, -0.00214492, -0.00433374, 0.00872403, -0.00486397, 0.00047419, 0.00066436, 0.01044150, 0.00440258, 0.00556115, 0.00253594, 0.00895085, -0.00653983, -0.00434550, -0.00337939, 0.00135082, -0.00578427, -0.00155511, -0.01142194, -0.00783906, -0.00689097, -0.00425109, 0.00036101, -0.00181403, -0.00199660, -0.00509430, -0.00792845, -0.00189467, 0.00371950, -0.02919743, 0.00165617, 0.00663802, 0.00457650, 0.00786753, 0.00266109, -0.00410830, -0.00296054, -0.00284868, -0.00000901, 0.00109656, -0.00701075, -0.00977681, 0.00017708, 0.00217301, 0.00029143, -0.00476290, -0.00012281},
  {-0.00518546, -0.00100433, -0.00517937, -0.00307762, 0.00280665, -0.00091022, 0.00427494, 0.00320385, -0.00514368, 0.00058519, -0.00246382, -0.00169724, 0.00280222, 0.00294378, 0.01138357, -0.00091055, 0.00360315, 0.00472981, -0.00123183, 0.01210561, 0.00010424, 0.00323327, 0.00087691, 0.00358461, -0.00357734, -0.00203270, -0.00119300, -0.00296262, -0.00181775, -0.00387297, 0.00684606, 0.00160239, -0.00388008, -0.00221866, -0.00016004, 0.00631408, 0.01495758, 0.00501152, 0.00641466, -0.00954560, 0.00609576, 0.00602881, -0.00733845, 0.00340839, -0.00128853, -0.00502139, 0.00524898, -0.00210730, 0.00318120, -0.00961185, -0.00878433, 0.00307473, -0.00198278, 0.00412671, -0.00676767, -0.00393370, -0.00857988, 0.00897779, 0.00097083, 0.00198252, 0.00202440, -0.00874624, -0.00181543, -0.00565663},
  {0.00147482, -0.00010309, -0.00107824, 0.00092500, 0.00095869, 0.00024012, -0.00002465, 0.00073952, -0.00074445, 0.00013979, 0.00048186, -0.00139078, -0.00069660, -0.00132362, -0.00010640, 0.00022720, 0.00006658, -0.00090309, -0.00055964, -0.00004915, -0.00085150, 0.00026788, -0.00106112, 0.00103540, 0.00014333, -0.00056008, -0.00110323, -0.00136984, 0.00006308, -0.00128525, -0.00012845, 0.00058045, -0.00063173, -0.00059772, -0.00064917, -0.00060403, 0.00050350, 0.00149075, 0.00157580, -0.00062997, -0.00077995, 0.00077390, 0.00068139, 0.00063839, 0.00008692, -0.00023719, -0.00190657, 0.00097694, 0.00138209, -0.00016821, -0.00056528, -0.00218196, 0.00057075, 0.00004060, 0.00101381, -0.00075236, -0.00109954, -0.00026460, -0.00110088, -0.00084093, 0.00026364, -0.00103046, 0.00105685, 0.00020694},
  {-0.00312667, 0.01323727, 0.00750638, -0.01089141, -0.01449584, -0.00529055, 0.01243060, -0.01610883, -0.00360946, 0.00174054, -0.00392241, -0.00626560, 0.01210871, -0.01953394, -0.00240012, -0.00500712, 0.00531540, 0.00495928, -0.00080245, -0.00175989, -0.00780209, 0.01028810, -0.00865637, 0.00902280, -0.00472217, -0.00458151, -0.00919377, 0.01562094, -0.00508144, -0.00372749, -0.01275671, -0.01838672, 0.00806077, -0.00412362, 0.00946804, 0.00318780, -0.00184512, 0.00099986, -0.01695462, 0.00553557, 0.00184494, -0.00885388, -0.00061898, -0.00421610, 0.00159014, 0.01116978, -0.00222532, 0.00366727, -0.01846758, 0.00305729, -0.00392363, -0.00462124, 0.00126983, -0.01002760, -0.00116263, 0.01418502, 0.00433060, -0.00289341, 0.00076049, -0.00351349, -0.00872552, -0.00719724, 0.00435605, -0.00382262},
  {0.00007703, 0.00761204, -0.00493470, 0.00244686, -0.00555666, 0.00481578, -0.00075111, -0.00149966, -0.00110466, 0.00038003, 0.00052064, -0.00879694, 0.01108674, -0.00767387, -0.00702303, -0.00155797, -0.00779290, 0.00249901, 0.00726043, -0.00552139, -0.00018742, -0.00068541, 0.01372520, -0.00626017, -0.00637438, 0.00789007, 0.00002813, -0.00300344, -0.00052124, -0.00278130, -0.01045204, -0.00201993, 0.00013613, -0.00195787, 0.00963020, 0.00544904, -0.00300303, -0.00627696, -0.00894743, -0.00372012, -0.00609004, -0.00944743, 0.00279342, -0.00793230, -0.00222898, -0.00358681, 0.00699773, -0.00351525, -0.00043472, -0.00251243, -0.00299486, 0.00018019, -0.00452664, 0.00230414, 0.00330677, -0.00406530, -0.00146214, -0.00699363, -0.00107900, 0.00280091, 0.00238439, -0.00965487, -0.00614436, 0.00053545},
  {-0.00023029, 0.00144086, 0.00062998, 0.00138050, -0.00150395, -0.00075249, 0.00791515, 0.00068228, 0.00075960, 0.00205589, 0.00365056, -0.00220502, 0.00534980, 0.00084630, 0.00019878, -0.01200827, -0.00065341, 0.00694771, 0.00478797, -0.00125365, 0.00417907, 0.00355967, 0.00156366, -0.00170500, -0.01406616, 0.00182895, 0.00155070, 0.00064549, -0.01143152, 0.00293791, -0.00244929, 0.00124270, 0.00358223, 0.00187407, 0.00115247, 0.00411199, -0.00136334, -0.00096247, -0.00340339, 0.00256945, -0.00098882, -0.00359771, -0.00901040, -0.00327026, 0.00282632, -0.00215437, 0.00441789, -0.00262033, 0.00012393, 0.00300415, -0.00767366, -0.00011977, 0.00332981, 0.00395707, -0.00616373, -0.00069566, 0.00273965, -0.00157514, 0.00349058, 0.00192631, 0.00151184, -0.00006201, -0.00179085, 0.00162007},
  {0.00162830, 0.00039210, 0.00102639, 0.00388584, 0.00331458, -0.00086681, 0.00725154, 0.00199474, 0.00080514, 0.00233101, 0.00528296, -0.00064196, 0.00457981, 0.00225806, -0.00131708, -0.01162192, -0.00059373, 0.00756148, 0.00367616, -0.00112804, 0.00135633, 0.00267009, 0.00039531, 0.00036757, -0.01311368, -0.00039600, 0.00310882, 0.00025156, -0.01114067, 0.00268788, -0.00284134, 0.00169233, 0.00169010, 0.00319089, 0.00326347, 0.00599573, -0.00133862, -0.00040493, -0.00123469, 0.00015723, -0.00054944, -0.00397056, -0.00842352, -0.00512443, 0.00203901, -0.00048416, 0.00350559, -0.00221501, 0.00150146, 0.00245671, -0.00733890, -0.00016856, 0.00161117, 0.00272577, -0.00768510, -0.00119011, 0.00288856, -0.00042712, 0.00137926, 0.00150978, 0.00414574, 0.00189415, -0.00090322, 0.00142902},
  {-0.00500297, 0.00019706, 0.00193088, -0.01478285, 0.00282266, -0.00563526, -0.00379689, 0.00017710, -0.00108839, 0.00200000, -0.01257267, -0.00491513, -0.00509997, -0.00836076, -0.00443415, -0.00099415, 0.01566760, -0.00445684, -0.00088028, -0.00776541, -0.00628959, 0.01297475, -0.00637288, 0.02169387, 0.00176223, -0.00000142, -0.00544764, 0.00620111, -0.00230992, 0.00013054, -0.00561477, -0.00200007, 0.01105540, 0.00055325, 0.00609198, -0.00575480, -0.00072508, 0.01493515, -0.00331596, 0.01109503, 0.01478963, -0.01348038, 0.00464899, -0.01054164, -0.00139111, 0.00421439, 0.00045555, 0.00000365, -0.00723344, 0.01328291, 0.00383689, -0.00503460, 0.00158284, -0.01131238, -0.00062547, 0.00377530, -0.00308559, -0.01084097, -0.00511106, -0.01031808, -0.00239960, -0.00053122, 0.01164106, -0.00159915},
  {0.00050496, 0.00155744, 0.00081634, 0.00058972, 0.00035396, -0.00072638, 0.00713859, 0.00345519, 0.00029648, 0.00309446, 0.00317805, -0.00149284, 0.00577168, 0.00235871, 0.00065241, -0.01199781, 0.00131036, 0.00690563, 0.00153889, -0.00135522, 0.00286712, 0.00382325, 0.00248253, 0.00016161, -0.01406651, 0.00126111, 0.00254665, -0.00051979, -0.01288772, 0.00202129, -0.00149028, 0.00358714, -0.00194422, 0.00256682, 0.00150354, 0.00401541, -0.00134312, 0.00030584, -0.00100524, -0.00125871, 0.00017038, 0.00059231, -0.01005869, -0.00258407, -0.00035228, -0.00081913, 0.00617870, -0.00365910, -0.00013020, 0.00187666, -0.01014938, -0.00072700, 0.00093164, 0.00308505, -0.00741489, -0.00172417, 0.00014138, 0.00093682, 0.00245534, -0.00022804, 0.00224916, 0.00154165, -0.00186494, -0.00124099},
  {0.00241462, -0.00305110, -0.00110574, -0.00280121, -0.00764245, 0.00269203, -0.00356269, -0.00390949, 0.00441780, 0.00945112, 0.01314266, 0.00388315, 0.00173236, -0.00227041, -0.00169916, -0.00214368, 0.00210368, -0.00135992, 0.00253686, -0.00262955, 0.01134068, 0.00423949, 0.00528221, 0.00527793, -0.00096184, 0.00380077, 0.01197874, -0.00506503, -0.00048406, -0.01220420, -0.00530393, -0.00106267, -0.01234572, -0.01181728, 0.00264032, -0.00124121, -0.00125413, 0.01085255, -0.00417346, -0.01175972, 0.00421341, 0.00358517, -0.00039213, 0.00804352, 0.00065812, -0.00208669, -0.00916696, 0.00497113, -0.00783146, -0.01417395, 0.00004649, 0.01109483, -0.00245723, 0.00074743, -0.00131800, -0.00272523, -0.00379241, 0.00324356, -0.00597657, 0.01174419, 0.01382746, -0.00283238, 0.00129364, 0.00052998},
  {0.00488639, -0.00198228, -0.00577077, -0.00459357, -0.00368205, 0.00604585, 0.00011286, 0.00524408, -0.00866669, -0.00032335, 0.00084644, -0.00650831, -0.00076773, -0.00754850, 0.00060118, -0.00416406, -0.00424681, 0.00407035, -0.00084073, -0.01184558, -0.00652616, 0.00044137, -0.00457577, -0.00857152, -0.00587977, 0.00021430, -0.00161176, 0.00111352, -0.00209325, -0.00711955, 0.00272233, 0.00389987, 0.00056634, -0.00735168, 0.00353043, 0.00665631, -0.00539932, -0.00402532, 0.00478939, 0.00214650, -0.00643585, 0.00217134, 0.00511580, -0.00014263, 0.00698528, -0.00354851, -0.00727444, 0.00658500, -0.00126997, 0.00297223, -0.00290891, -0.00201106, 0.00597312, 0.00057977, 0.00485284, -0.00218595, -0.00950068, -0.00104121, -0.00815499, -0.00160201, 0.00251622, 0.00435368, 0.00133672, 0.00503065},
  {0.01299864, 0.00395426, -0.00831995, 0.00293141, -0.00725782, 0.00821630, 0.00165526, -0.00892700, -0.01348779, -0.00513843, 0.00225101, 0.01434538, -0.00184352, -0.00324434, 0.00364583, -0.00122303, 0.00162700, 0.00460041, -0.00293511, 0.01887485, -0.00779369, 0.00331190, -0.00646329, 0.00131997, -0.00328295, 0.00530030, -0.00412804, 0.00342636, -0.00328633, 0.00302453, -0.00986094, -0.00892636, 0.00571017, 0.00322958, 0.00056161, 0.00185191, 0.00355810, -0.00618783, -0.00785107, 0.01211563, 0.00472399, -0.00792666, 0.00388459, -0.00154147, 0.00166551, -0.00952384, -0.00357092, -0.00639460, -0.00985233, 0.01561238, -0.00589115, 0.01157650, 0.00255025, 0.00199446, 0.00267113, -0.00546404, -0.00676617, -0.00157317, 0.00373505, 0.01316787, -0.00873563, -0.00464266, -0.00302148, 0.01644151},
  {-0.00453991, -0.00124250, -0.00223470, 0.00884033, 0.00476721, -0.00543976, 0.00105907, 0.00068753, 0.00150715, -0.01189888, 0.00241509, -0.00327204, -0.00407684, 0.00961040, 0.00255859, 0.00101473, -0.01175951, 0.00083019, -0.00083709, 0.00385435, 0.00381284, -0.00641730, 0.00074476, -0.00843468, -0.00199415, 0.00190594, -0.00325283, -0.01015748, -0.00161538, -0.00168395, 0.00019306, 0.00410661, -0.01035843, -0.00082952, -0.00582053, 0.00113841, -0.00139941, -0.00917499, 0.00026756, -0.00954473, -0.01212892, -0.00089612, -0.00007720, 0.00536225, 0.00094760, -0.00387861, -0.00108885, 0.00174645, 0.00888366, -0.00810568, -0.00142691, -0.00709896, 0.00113772, 0.00644121, 0.00088996, -0.00736382, 0.00012110, 0.00207699, 0.00369603, -0.00375388, -0.00796435, 0.00951051, -0.00560199, -0.00105022},
  {0.00014159, 0.00017547, -0.00008187, -0.00036599, -0.00059937, 0.00056928, -0.00013292, 0.00045137, -0.00069657, -0.00063232, -0.00098233, 0.00088959, -0.00048666, 0.00064240, -0.00065670, 0.00030451, 0.00007406, 0.00045948, -0.00192561, 0.00030197, 0.00004612, 0.00043501, -0.00161546, 0.00059937, 0.00004689, -0.00153281, -0.00058310, -0.00023895, 0.00007040, -0.00005228, -0.00101303, -0.00007696, -0.00011460, 0.00093319, 0.00005889, 0.00065513, -0.00014721, -0.00036866, 0.00037660, 0.00081786, -0.00099523, -0.00004145, -0.00074740, 0.00049101, 0.00054478, 0.00021750, -0.00029458, 0.00036584, 0.00119679, 0.00023774, 0.00052972, -0.00031486, 0.00081405, 0.00040272, -0.00030653, 0.00025170, -0.00116593, 0.00072493, 0.00002556, -0.00052878, -0.00000451, 0.00007085, -0.00030253, 0.00015666},
  {0.00051457, 0.00164952, 0.00232125, -0.00999481, -0.00744549, -0.00167138, 0.00647478, 0.00320323, 0.01046472, 0.01285258, -0.00074391, 0.00353214, 0.00131390, -0.00220036, -0.00568368, -0.00022933, 0.01039494, -0.00311029, 0.01406024, -0.00391687, 0.01198925, 0.00801414, 0.00973624, 0.00578032, 0.00282576, 0.00497808, 0.00556869, 0.00459609, 0.00137473, 0.00051360, 0.01132580, -0.00222243, -0.00552889, 0.00012710, 0.00834290, -0.00363783, -0.00312949, 0.01230316, 0.00660769, -0.00936793, 0.00799285, 0.00777181, 0.00187704, -0.00252442, -0.01273184, 0.00160724, 0.00221637, -0.00773771, -0.01276643, -0.01140733, 0.00182790, -0.00198200, -0.01310775, -0.00667931, -0.00201256, 0.00107219, 0.00684021, -0.00322414, -0.00273098, -0.00295224, 0.01217613, -0.01634615, 0.01053603, 0.00476606},
  {-0.00006386, 0.00011634, -0.00003634, 0.00018018, -0.00024043, 0.00033869, -0.00066635, -0.00022866, 0.00031794, 0.00022448, -0.00005977, -0.00053898, 0.00017073, -0.00009762, -0.00043902, -0.00052675, 0.00017957, -0.00016169, 0.00017238, 0.00007260, -0.00015205, -0.00000912, 0.00082098, 0.00024779, -0.00016631, 0.00055437, 0.00090282, -0.00037080, -0.00056278, -0.00037528, -0.00019659, -0.00068680, -0.00045652, 0.00000440, -0.00003981, -0.00034173, 0.00025053, -0.00015504, -0.00103344, 0.00076269, 0.00064438, -0.00062868, 0.00026318, -0.00031354, 0.00003974, -0.00028214, 0.00028277, -0.00065093, -0.00017959, -0.00096685, -0.00015757, 0.00122293, -0.00003056, -0.00030173, -0.00004675, -0.00018362, -0.00017594, -0.00038502, -0.00012780, -0.00048864, 0.00039791, -0.00001933, 0.00019417, 0.00032262},
};

const double bias_hidden2[64] = {-0.00750652, 0.00173715, -0.01052315, -0.02343086, 0.00561685, -0.00782398, -0.01742583, -0.01987751, -0.00588123, -0.00432064, -0.00973585, -0.00261302, -0.00176938, 0.00575774, -0.01005291, -0.01146104, 0.00212948, 0.00327195, -0.01013124, 0.00415995, 0.00304164, -0.01275387, 0.00361900, 0.00317063, 0.01135587, 0.02498364, -0.00182167, 0.01491966, 0.00267810, -0.00690711, 0.00237101, 0.00290862, -0.00627007, 0.00276200, -0.00851776, 0.00473950, 0.00387684, -0.00402247, -0.00408605, 0.00571884, -0.00412270, -0.00604391, 0.00268079, 0.00408419, -0.00030106, -0.00015906, -0.00196289, -0.00299179, 0.00820844, -0.00455943, 0.00368139, -0.00041266, -0.01489980, -0.00661142, 0.01486927, 0.00752414, 0.00245868, -0.00971524, -0.00951238, 0.00080797, -0.01153548, -0.01163584, 0.00733843, -0.00922111};

const double weights_hidden2_hidden3[64][64] = {
  {-0.00238335, -0.00351469, 0.00194971, 0.00438248, 0.00113653, -0.00250544, 0.00540515, -0.00279182, -0.00292885, 0.01140569, -0.00190885, 0.00128452, 0.00161992, -0.00294266, -0.00128098, 0.00247464, 0.00033156, -0.01593950, -0.00304425, -0.00056672, 0.00051563, -0.00300737, -0.00125113, -0.01243735, -0.00422158, -0.00311399, -0.00305058, 0.01211869, 0.00068138, 0.00203870, -0.00596272, 0.01345077, 0.00022023, 0.00552100, 0.00499396, 0.00111688, -0.00059944, -0.00156424, 0.00226399, 0.00166551, 0.00092732, 0.00145800, -0.00463206, 0.00241158, -0.00510862, 0.00153814, -0.01626436, -0.00256577, -0.00311955, -0.00010457, 0.00099467, 0.00588184, 0.00002259, -0.01740194, 0.00515223, 0.00063897, 0.00269381, -0.00111024, -0.01467476, -0.00141380, 0.00110865, -0.00353572, -0.00363954, -0.00222101},
  {0.00415484, 0.00179505, -0.00221838, 0.00047593, -0.00513260, 0.00105675, 0.00268007, -0.00039770, 0.00258197, 0.00401356, 0.00032751, 0.00334352, -0.00179029, -0.00264601, 0.00275491, -0.00775841, -0.00583085, -0.00117936, 0.00053207, -0.00164064, -0.00869998, 0.00135765, -0.00093943, -0.00092478, 0.00126034, -0.00177847, -0.00177673, 0.00240912, -0.00721850, -0.00815163, 0.00302701, 0.00191468, 0.00033566, 0.00360435, 0.00024101, 0.00079443, -0.00388533, -0.00149843, 0.00255116, -0.00148511, -0.00800902, -0.00785611, 0.00393128, -0.00735864, 0.00116492, -0.00707338, -0.00161951, 0.00194681, 0.00277426, -0.00745178, -0.00716492, 0.00144602, -0.00711205, -0.00258294, 0.00326643, -0.00130308, 0.00137196, -0.00665003, -0.00380528, -0.00104714, -0.00140784, 0.00014110, -0.00020608, 0.00217766},
  {0.00287008, 0.00786870, 0.00037840, -0.00745576, -0.00113493, -0.00812013, -0.00162040, 0.00349241, -0.01285967, 0.00097087, 0.00146015, 0.00090362, -0.00864220, -0.00058477, -0.00763826, -0.00406213, 0.00075804, -0.00669525, 0.00444609, -0.00162770, -0.00243193, 0.00415457, -0.00204886, -0.00867397, 0.00236244, 0.00001994, -0.00188036, 0.00264542, 0.00081007, -0.00174513, -0.01181762, 0.00403528, 0.00008743, 0.00459647, -0.00739929, 0.00498390, -0.00107243, 0.00059391, -0.00096240, -0.01059053, -0.00302208, -0.00216899, 0.00165198, -0.00297123, -0.01253639, -0.00115599, -0.00774366, 0.00582222, -0.01247287, 0.00115882, -0.00321481, -0.00577797, 0.00138082, -0.00596478, -0.00423380, -0.00794196, 0.00090031, 0.00100839, -0.00869439, -0.00067026, -0.00697508, -0.00931391, -0.00015281, 0.00891393},
  {-0.00212551, 0.00350821, -0.00684932, 0.00294961, -0.00673676, 0.00371004, 0.00333629, -0.00268925, 0.01076030, 0.00038561, -0.00263478, -0.00195974, 0.00372718, 0.00057731, 0.00631357, -0.01073490, -0.00673280, 0.00098419, 0.00128801, 0.00179090, -0.00925804, -0.00059568, -0.00178304, 0.00440754, -0.00332938, -0.00245485, 0.00044064, 0.00318304, -0.00849308, -0.00809504, 0.00770675, 0.00326445, -0.00187004, 0.00033393, 0.00307335, -0.00057384, -0.00641030, -0.00335967, -0.00185148, 0.00587138, -0.01001101, -0.00919777, 0.00337144, -0.00982269, 0.00611715, -0.00724463, 0.00257740, 0.00135727, 0.00548112, -0.00892828, -0.01309682, 0.00407325, -0.00814883, 0.00095334, 0.00282339, 0.00552967, 0.00185656, -0.00574085, 0.00078445, -0.00276368, 0.00233357, 0.00297381, -0.00279690, 0.00281360},
  {0.00156292, -0.00107944, -0.00235125, 0.00059804, -0.00555772, 0.00337656, 0.00042950, 0.00129447, 0.00609363, 0.00091617, -0.00441853, 0.00010598, 0.00398418, 0.00406556, 0.00318091, -0.01134116, -0.00724565, 0.01104264, 0.00139293, 0.00377532, -0.01080711, -0.00398025, 0.00144316, 0.00810148, 0.00187161, 0.00175633, 0.00371807, -0.00004599, -0.00829654, -0.00926706, 0.00535146, 0.00132866, 0.00197079, -0.00085362, -0.00058789, -0.00267958, -0.00125581, 0.00205099, -0.00535438, 0.00240549, -0.01338279, -0.00895874, 0.00553906, -0.00973538, 0.00730020, -0.00592606, 0.01028560, -0.00278744, 0.00802149, -0.01032753, -0.01016998, -0.00229141, -0.00722848, 0.00603504, -0.00467677, 0.00281078, 0.00286644, -0.00542629, 0.01276806, 0.00236640, 0.00030757, 0.00484385, 0.00255660, -0.00037805},
  {-0.00371739, -0.00627880, 0.00278169, 0.00477557, -0.00025927, -0.00190698, 0.00573020, -0.00547940, -0.00031336, 0.01181482, -0.00213160, -0.00115236, 0.00261902, -0.00386877, -0.00179889, 0.00264208, 0.00196442, -0.01739825, -0.00121812, -0.00363080, 0.00175744, -0.00278733, -0.00174738, -0.01619961, -0.00400598, -0.00488439, -0.00505095, 0.01286321, 0.00140466, 0.00163887, -0.00091411, 0.01440886, -0.00153869, 0.00590655, 0.00410896, 0.00021915, 0.00185632, -0.00187276, 0.00163344, 0.00164847, 0.00339663, 0.00213106, -0.00317968, 0.00187096, 0.00088894, 0.00172945, -0.01602148, -0.00310054, 0.00082680, 0.00199712, 0.00294713, 0.00499559, 0.00308809, -0.01722127, 0.00509620, 0.00253913, 0.00355101, 0.00095452, -0.01743699, -0.00172267, 0.00001818, -0.00161235, -0.00347565, -0.00316918},
  {0.00219918, -0.00285589, 0.00884539, -0.00798675, -0.00272425, -0.00227197, 0.00045601, 0.00746056, -0.00310176, -0.00030092, -0.00408019, 0.00079496, -0.00407328, 0.00455366, -0.00161169, -0.00313925, -0.00181951, -0.00072116, 0.00535869, 0.00503740, -0.00241493, -0.00606606, 0.01080835, -0.00165984, 0.00878119, 0.00907690, 0.00378646, -0.00064113, -0.00220159, -0.00212533, -0.00275353, -0.00037665, 0.01085662, -0.00153948, -0.00608487, 0.00114788, 0.00977139, 0.01001358, -0.00634168, -0.00510017, -0.00052949, -0.00286208, 0.01194551, -0.00223338, -0.00261780, -0.00275174, -0.00332596, -0.00650004, -0.00152106, -0.00131511, -0.00037715, -0.00869366, -0.00244518, -0.00345979, -0.00779724, -0.00262805, -0.00072859, -0.00164227, -0.00216693, 0.00952166, -0.00594038, -0.00198237, 0.01013719, -0.00221079},
  {0.00910678, -0.00377438, 0.00536190, -0.00294796, -0.00363993, 0.00647744, 0.00461343, 0.00463208, 0.00410086, 0.00442855, -0.00442438, 0.00882693, 0.00073432, 0.00244218, 0.00549312, -0.00495744, -0.00135991, 0.00972219, 0.00351114, 0.00168746, -0.00303821, -0.00516226, 0.00440527, 0.00482300, 0.00371852, 0.00367965, 0.00110979, 0.00170837, -0.00379492, -0.00347613, 0.00413809, 0.00193280, 0.00462425, 0.00133728, -0.00309138, 0.00063965, 0.00635545, 0.00447800, -0.00754518, 0.00056180, -0.00307424, -0.00384518, 0.00396304, -0.00320345, 0.00461174, -0.00250129, 0.00897357, -0.00484316, 0.00821884, -0.00225761, -0.00323715, -0.00373199, -0.00185133, 0.00753174, -0.00641080, 0.00134793, 0.00255720, -0.00304701, 0.01086488, 0.00466692, -0.00089790, 0.00577622, 0.00341356, -0.00391537},
  {0.00549719, 0.00466383, -0.00238735, -0.00157656, -0.00196401, -0.00517704, 0.00182085, 0.00551953, -0.01440607, 0.00552010, 0.00116808, 0.00736149, -0.00738694, -0.00071470, -0.00479153, 0.00304275, -0.00082988, -0.01153681, -0.00057460, -0.00361733, -0.00018216, 0.00163134, -0.00212758, -0.01548275, 0.00687415, 0.00020052, -0.00185812, 0.00582102, 0.00120563, 0.00074110, -0.01305603, 0.00592632, -0.00167244, 0.00421921, -0.00096036, 0.00050382, -0.00278404, -0.00223086, 0.00219546, -0.01018152, 0.00319758, 0.00148940, 0.00048604, 0.00048593, -0.01136946, -0.00077877, -0.00881075, 0.00283854, -0.01368516, 0.00164366, 0.00243158, 0.00076959, 0.00025927, -0.00533634, 0.00219326, -0.00696166, 0.00119927, 0.00150543, -0.01139685, -0.00212457, -0.00228858, -0.00783426, -0.00170240, 0.00471064},
  {0.00439928, 0.00015033, -0.00134938, -0.00097343, -0.00559736, 0.00247770, 0.00859243, -0.00060007, -0.00291238, 0.00163318, -0.00388097, 0.00285541, 0.00033812, -0.00403393, 0.00052857, -0.01023032, -0.01069555, 0.00497038, 0.00235989, -0.00374664, -0.01015681, -0.00202309, -0.00001204, 0.00234662, -0.00216494, -0.00149475, -0.00434003, -0.00003177, -0.00941160, -0.00777031, -0.00258359, -0.00129960, -0.00008249, 0.01173957, -0.00163194, 0.00472139, -0.00133069, 0.00008815, -0.00433924, 0.00030504, -0.01184228, -0.00835887, 0.00357262, -0.00877933, -0.00206648, -0.00679803, 0.00184395, -0.00071096, -0.00404367, -0.01084276, -0.00990458, -0.00174152, -0.01001900, 0.00159651, -0.00145352, -0.00100320, 0.00718625, -0.00892395, 0.00239857, 0.00109512, 0.00022673, 0.00096200, 0.00059270, 0.00003478},
  {-0.00338921, -0.00301329, 0.00089834, -0.00041282, -0.00388009, -0.00116260, 0.01054377, 0.00020326, -0.00224195, 0.00277911, -0.00651060, -0.00234110, 0.00329512, -0.00051120, 0.00052141, -0.00382862, -0.01009914, -0.00964171, 0.00787097, 0.00104783, -0.01022579, -0.00483929, 0.00265359, -0.00610532, 0.00047327, 0.00079866, -0.00250361, 0.00566818, -0.00764231, -0.00158946, -0.00050316, 0.00774165, 0.00268465, 0.00832387, 0.00132158, 0.00734585, 0.00435549, 0.00452849, -0.00488967, 0.00156121, -0.00241793, -0.00211857, 0.00480691, -0.00325204, 0.00034530, -0.00457420, -0.00514106, -0.00223817, -0.00394267, -0.00736102, -0.00218422, -0.00083900, -0.00948714, -0.00407417, 0.00013843, 0.00391453, 0.00759168, -0.01078082, -0.00800516, 0.00223149, 0.00127348, -0.00319724, 0.00195677, -0.00111098},
  {-0.00402630, 0.00158436, 0.00326116, 0.00500261, -0.01067506, -0.00140664, -0.00071420, -0.00595823, -0.00397569, -0.00052512, 0.00296304, -0.00655482, 0.00203785, -0.00243314, 0.00046361, -0.01331040, -0.00653866, -0.00261386, 0.00596613, -0.00161160, -0.00773503, 0.00320101, -0.00342856, -0.00523710, -0.00582778, -0.00413843, -0.00266812, -0.00325512, -0.00773046, -0.01292308, -0.00508971, -0.00193198, -0.00449377, -0.00083251, 0.00637475, 0.00647905, -0.00141958, -0.00366793, 0.00647250, 0.00103556, -0.01225524, -0.01313365, 0.00442639, -0.01075626, -0.00365429, -0.01266657, -0.00292812, 0.00418499, -0.00584720, -0.00997933, -0.01384554, 0.00649101, -0.00629107, -0.00123489, 0.00879694, 0.00058043, -0.00399197, -0.00681896, -0.00092590, -0.00410436, 0.00178203, -0.00173396, -0.00466489, 0.00178437},
  {0.00049160, -0.00146303, 0.00224586, -0.00515601, -0.00279925, 0.00151672, 0.00779932, 0.00574060, 0.00076420, 0.00365658, -0.00407269, 0.00123560, -0.00122758, 0.00301912, 0.00114777, -0.00627589, -0.00467706, -0.00150221, 0.00394259, 0.00441435, -0.00646226, -0.00438501, 0.00570880, -0.00096602, 0.00543350, 0.00642883, 0.00412912, 0.00532957, -0.00620561, -0.00569037, 0.00040517, 0.00468786, 0.00762116, 0.00727558, -0.00567394, -0.00026745, 0.00150734, 0.00593626, -0.00711818, -0.00212377, -0.00448755, -0.00561622, 0.00750361, -0.00464626, 0.00130497, -0.00348695, -0.00539048, -0.00298684, 0.00462651, -0.00602444, -0.00584662, -0.00785729, -0.00600233, -0.00486372, -0.00734659, -0.00099119, 0.00450315, -0.00523849, -0.00158890, 0.00564989, -0.00408135, 0.00009747, 0.00737118, -0.00085079},
  {-0.00652043, 0.00614961, -0.00126980, 0.00599399, -0.00771768, -0.00143816, -0.00186635, -0.00527589, 0.00049132, -0.00710521, 0.00139959, -0.00705780, 0.00174984, -0.00184359, -0.00093124, -0.00680149, -0.01601616, -0.00435021, 0.01081666, 0.00115200, -0.01750428, 0.00317621, -0.00189288, 0.00144408, -0.00455236, -0.00309994, 0.00022100, -0.00395613, -0.01406772, -0.00682559, 0.00326178, -0.00384196, -0.00378788, -0.00075629, 0.00460643, 0.01150767, -0.00203940, -0.00224345, 0.00280675, 0.00080312, -0.00778892, -0.00791511, 0.00760408, -0.00861099, -0.00007472, -0.00868648, -0.00058793, 0.00346642, 0.00145970, -0.01418026, -0.00680394, 0.00330822, -0.01498637, -0.00164676, 0.00470312, 0.00273376, -0.00206312, -0.01291581, -0.00342741, -0.00154790, 0.00307251, -0.00164834, -0.00245270, 0.00444708},
  {-0.00015268, -0.00488646, 0.00099626, 0.00206396, -0.00643813, 0.00443256, -0.00502457, 0.00636093, 0.00596486, -0.00410951, -0.00150514, -0.00074402, 0.00556777, 0.00925201, 0.00375111, -0.00925898, -0.00615628, 0.00953706, -0.00324796, 0.00984760, -0.00628652, -0.00265540, 0.00295344, 0.00925260, 0.00512262, 0.00705091, 0.01176545, -0.00488896, -0.00615402, -0.00735129, 0.00568626, -0.00324028, 0.00234470, -0.00569509, 0.00205529, -0.00461702, 0.00076862, 0.00177898, -0.00175803, 0.00423928, -0.01036652, -0.00847762, 0.00504399, -0.00707474, 0.00296090, -0.00556712, 0.00719230, -0.00152502, 0.00539507, -0.00606790, -0.00923194, 0.00134214, -0.00584821, 0.00704656, -0.00101520, 0.00425681, -0.00570714, -0.00564444, 0.00840587, 0.00250766, 0.00303304, 0.00327060, 0.00386860, -0.00559621},
  {-0.00235843, 0.00464854, -0.00901316, 0.01168302, 0.00315161, 0.00196400, -0.00015065, -0.00765464, 0.00229225, -0.00242060, 0.00518484, 0.00078378, 0.00343583, -0.00628767, -0.00079142, 0.00131873, -0.00089129, -0.00112740, -0.00172130, -0.00367454, 0.00073153, 0.01137467, -0.01141421, -0.00041778, -0.00663871, -0.00797456, -0.00528012, -0.00489256, 0.00002353, 0.00102430, 0.00081609, -0.00302132, -0.01146131, -0.00043675, 0.01229884, 0.00317211, -0.00835942, -0.01128693, 0.01634312, 0.00612877, 0.00092016, 0.00147449, -0.00959602, -0.00069816, -0.00125626, 0.00179011, 0.00045829, 0.01146504, -0.00248499, -0.00090728, -0.00065019, 0.01455859, -0.00076763, 0.00307422, 0.01649583, 0.00359842, 0.00175412, -0.00153148, -0.00152363, -0.01124246, 0.00908355, 0.00123807, -0.01087753, 0.00372887},
  {0.00830408, -0.00271362, -0.00024537, 0.00219154, -0.00516477, 0.00066387, 0.00830711, 0.00278687, -0.00246951, 0.00678507, -0.00424581, 0.00709010, 0.00243131, -0.00236008, 0.00299909, -0.00921135, -0.00866475, 0.00219983, 0.00065110, -0.00435178, -0.00983897, -0.00171612, 0.00052771, 0.00167290, 0.00273654, 0.00086897, -0.00400346, 0.00467579, -0.00829820, -0.00636315, 0.00025708, 0.00404098, 0.00088257, 0.00702740, 0.00192314, -0.00078927, -0.00151622, 0.00179416, -0.00113122, 0.00268422, -0.00951565, -0.00640210, -0.00052234, -0.00695299, -0.00032956, -0.00603635, 0.00060063, -0.00374886, -0.00398110, -0.00998065, -0.00712210, 0.00122721, -0.00816918, 0.00229032, 0.00001457, 0.00137356, 0.00599036, -0.00759494, 0.00363842, 0.00196045, 0.00255993, 0.00367053, 0.00065774, -0.00432559},
  {-0.00230832, -0.00475507, 0.01175709, -0.00477109, -0.00030945, -0.00365979, -0.00296010, 0.00266202, -0.00257568, -0.00473327, -0.00249390, -0.00284942, -0.00367130, 0.00192946, -0.00330509, 0.00134440, 0.00193632, -0.00196065, 0.00788914, 0.00344363, 0.00303198, -0.00490414, 0.00950134, -0.00067526, 0.00266899, 0.00559318, 0.00116632, -0.00395186, 0.00189395, 0.00238246, -0.00235118, -0.00344564, 0.00876215, -0.00467528, -0.00325152, 0.00516046, 0.01084563, 0.00779193, -0.00277143, -0.00433439, 0.00396616, 0.00167511, 0.01152494, 0.00319380, -0.00296426, 0.00149043, -0.00375340, -0.00605287, -0.00246395, 0.00246346, 0.00400741, -0.00376960, 0.00269068, -0.00495817, -0.00482767, -0.00236657, -0.00364818, 0.00077994, -0.00235793, 0.00798716, -0.00490944, -0.00287486, 0.00740792, -0.00292940},
  {0.00537493, 0.00019158, 0.00231096, -0.00419632, 0.00166769, -0.00578751, 0.00299514, 0.00366035, -0.01478698, 0.00156889, -0.00022011, 0.00487469, -0.00568562, -0.00112895, -0.00420719, 0.00147874, -0.00754836, -0.00649544, 0.00673953, -0.00113008, -0.00618787, -0.00145436, 0.00231256, -0.01153970, 0.00380416, 0.00314030, -0.00280510, 0.00234224, -0.00383210, 0.00414582, -0.01310996, 0.00043812, 0.00316747, 0.00355621, -0.00409595, 0.00650345, 0.00266726, 0.00208358, -0.00029338, -0.00567232, 0.00036219, 0.00105764, 0.00389664, 0.00016144, -0.01313694, -0.00133411, -0.01235777, -0.00300601, -0.01269694, -0.00333952, 0.00293499, -0.00387576, -0.00722651, -0.00774570, -0.00189544, -0.00493949, 0.00059733, -0.00579937, -0.00823481, 0.00237088, -0.00241544, -0.00610609, 0.00142372, -0.00004676},
  {-0.00002190, -0.00365587, -0.00192408, 0.00183056, -0.00538781, 0.00418065, -0.00450290, 0.00400285, 0.00926661, -0.00413228, -0.00228699, -0.00167724, 0.00689197, 0.01165076, 0.00567301, -0.00761860, -0.00484937, 0.01032658, -0.00751787, 0.01497596, -0.00561767, -0.00228271, 0.00283309, 0.01059144, 0.00456338, 0.00829170, 0.01494685, -0.00364998, -0.00607776, -0.00708706, 0.00921278, -0.00204182, 0.00245515, -0.00447850, 0.00285113, -0.00851630, -0.00150877, 0.00152325, -0.00102464, 0.00528410, -0.00957930, -0.00761311, 0.00283763, -0.00755412, 0.00119670, -0.00439255, 0.00788536, -0.00164932, 0.00624566, -0.00557892, -0.00872870, 0.00072039, -0.00582552, 0.00681590, -0.00000460, 0.00614672, -0.00566875, -0.00486662, 0.00595296, 0.00130553, 0.00290400, 0.00538540, 0.00435276, -0.00249772},
  {-0.00037148, 0.00608441, -0.00330513, -0.00192006, 0.00092915, -0.00790618, 0.00242055, 0.00100114, -0.01296431, -0.00281950, 0.00019145, -0.00047160, -0.00814869, -0.00323946, -0.00719999, 0.00293189, -0.00754228, -0.01225030, 0.01032573, -0.00195577, -0.00663054, -0.00049211, -0.00040910, -0.01341224, 0.00082028, -0.00117767, -0.00365888, -0.00318616, -0.00488823, 0.00343681, -0.01369704, -0.00266466, 0.00012275, 0.00341266, -0.00190608, 0.01083022, -0.00071614, -0.00079566, 0.00068556, -0.00695422, 0.00346060, 0.00242704, 0.00386718, 0.00185447, -0.01276947, -0.00059118, -0.00987267, 0.00103447, -0.01476763, -0.00460363, 0.00378643, 0.00055225, -0.00741447, -0.00595847, 0.00065824, -0.00624389, -0.00229846, -0.00561044, -0.01242947, -0.00037921, -0.00263421, -0.01100158, -0.00087704, 0.00617318},
  {0.00937151, -0.00137062, 0.00423266, -0.00544999, -0.00232775, 0.00019459, 0.00539296, 0.01042068, -0.00609233, 0.00624403, -0.00308915, 0.00864887, -0.00514362, 0.00355124, 0.00005612, -0.00564695, -0.00373314, 0.00178092, 0.00163491, 0.00290224, -0.00499392, -0.00074687, 0.00368820, -0.00011720, 0.01107241, 0.00560309, 0.00346858, 0.00685128, -0.00503208, -0.00366122, -0.00437216, 0.00497564, 0.00506586, 0.00588578, -0.00518499, -0.00093260, 0.00444347, 0.00569653, -0.00524352, -0.00642221, -0.00508523, -0.00429845, 0.00391831, -0.00491842, -0.00404610, -0.00180700, -0.00086916, 0.00004284, -0.00201419, -0.00580368, -0.00550020, -0.00571172, -0.00628731, -0.00095664, -0.00627352, -0.00447456, 0.00563273, -0.00443003, -0.00008140, 0.00464342, -0.00350612, -0.00201970, 0.00574032, -0.00092585},
  {0.00395188, 0.00196018, 0.00069329, -0.00040673, 0.00422932, -0.00683604, -0.00091071, 0.00108876, -0.01509272, 0.00228787, 0.00255713, 0.00467160, -0.00386525, -0.00018018, -0.00702055, 0.00580831, -0.00347253, -0.01031364, 0.00596574, -0.00120093, -0.00166514, 0.00101483, 0.00020060, -0.01025705, 0.00133733, -0.00006762, -0.00156237, 0.00291861, -0.00170081, 0.00631494, -0.01194834, 0.00210657, 0.00028166, 0.00100544, 0.00010075, 0.00622421, 0.00276362, -0.00030372, 0.00231799, -0.00328931, 0.00632942, 0.00507864, -0.00104740, 0.00471879, -0.01302746, 0.00510568, -0.01199891, 0.00200627, -0.01323689, -0.00039179, 0.00617103, 0.00084761, -0.00244205, -0.00840920, 0.00064775, -0.00401965, -0.00301048, -0.00344396, -0.01075011, -0.00046802, -0.00064464, -0.00772687, -0.00044466, 0.00155919},
  {0.00960624, -0.00162378, -0.00171986, 0.00186360, -0.00210226, 0.00299143, 0.00969218, 0.00340890, 0.00197000, 0.00484724, -0.00179847, 0.00842089, 0.00285578, -0.00329714, 0.00333717, -0.00653657, -0.00480548, 0.00508848, -0.00336564, -0.00407157, -0.00724473, -0.00087599, -0.00184216, 0.00471593, 0.00287332, -0.00092870, -0.00220609, 0.00519991, -0.00502862, -0.00386993, 0.00189886, 0.00298374, 0.00033610, 0.00827603, 0.00197913, -0.00415899, -0.00316254, -0.00117024, -0.00083666, 0.00037315, -0.00937757, -0.00400006, -0.00093341, -0.00500516, 0.00355323, -0.00309414, 0.00509113, -0.00101738, 0.00292847, -0.00739563, -0.00668190, 0.00043407, -0.00488633, 0.00576913, 0.00188468, 0.00105422, 0.00945946, -0.00609370, 0.00572531, -0.00121969, 0.00206722, 0.00443907, -0.00175191, -0.00206347},
  {-0.00014575, 0.00779637, -0.01471320, 0.01297017, 0.00265238, 0.00287987, 0.00053338, -0.00705614, 0.00129581, -0.00100253, 0.00771484, 0.00046274, 0.00346911, -0.00799358, 0.00213603, -0.00032387, -0.00097085, -0.00342224, -0.00248040, -0.00841275, -0.00368073, 0.01266293, -0.01223357, -0.00199880, -0.00492701, -0.00946255, -0.00717642, -0.00152929, -0.00121860, -0.00044747, 0.00208188, -0.00302388, -0.01171970, 0.00045605, 0.01184863, -0.00098704, -0.01402822, -0.01187462, 0.01705133, 0.00469908, -0.00105414, 0.00081299, -0.00920742, 0.00020860, 0.00152975, 0.00258535, 0.00086853, 0.01323835, 0.00009113, -0.00101000, -0.00254112, 0.01590929, -0.00243998, 0.00289968, 0.01666733, 0.00276750, 0.00150675, -0.00022494, -0.00272659, -0.01271864, 0.00895797, 0.00072160, -0.01137126, 0.00620171},
  {0.00051688, 0.00098763, 0.00115541, -0.00014217, 0.00484097, -0.00719012, -0.00007116, -0.00085663, -0.01274686, -0.00376621, 0.00142795, 0.00042154, -0.00506874, -0.00103101, -0.00651729, 0.00504663, 0.00132824, -0.00692682, 0.00205432, -0.00114420, 0.00132701, 0.00191964, -0.00154518, -0.00617206, -0.00143195, -0.00153464, -0.00235019, -0.00223269, 0.00308784, 0.00542287, -0.01014434, -0.00240515, -0.00032144, -0.00101521, -0.00016747, 0.00403324, 0.00174041, -0.00170504, 0.00324678, -0.00104778, 0.00323354, 0.00358268, -0.00138378, 0.00333900, -0.01128761, 0.00481095, -0.00797036, 0.00197053, -0.01414913, 0.00278013, 0.00326719, 0.00243190, 0.00099390, -0.00380857, 0.00177487, -0.00297218, -0.00367266, 0.00037588, -0.00611304, -0.00156885, 0.00038912, -0.00689325, -0.00170111, 0.00007495},
  {-0.00013953, 0.00219213, -0.00388262, 0.00158198, -0.00471715, 0.00192218, 0.00661073, -0.00196740, 0.00175953, 0.00070758, -0.00406257, -0.00059679, 0.00172138, -0.00433111, 0.00028581, -0.01118456, -0.00634797, 0.00151427, -0.00122903, -0.00450669, -0.00761326, -0.00143114, -0.00176538, 0.00133828, -0.00214423, -0.00292314, -0.00455906, 0.00036139, -0.00785548, -0.00530958, 0.00254272, 0.00009999, -0.00113729, 0.00912131, 0.00206701, -0.00125207, -0.00372569, -0.00165507, -0.00294401, 0.00076577, -0.01018460, -0.00652940, 0.00450023, -0.00802402, 0.00232869, -0.00496356, 0.00138823, 0.00166944, 0.00205292, -0.00927203, -0.01026901, 0.00180498, -0.00536449, 0.00190704, 0.00177856, 0.00013969, 0.00569309, -0.00556569, 0.00237964, -0.00097133, 0.00130458, 0.00051993, -0.00102866, 0.00340186},
  {0.00694933, 0.00451131, -0.00180975, -0.00634986, 0.00353353, -0.00283316, 0.00483435, 0.00537914, -0.00918646, 0.00516556, -0.00077607, 0.00548517, -0.00804157, -0.00047757, -0.00323234, 0.00294904, 0.00407463, -0.00644288, -0.00416663, -0.00000422, 0.00269882, 0.00070709, -0.00168858, -0.00722821, 0.00591619, 0.00095381, -0.00054920, 0.00734187, 0.00402904, 0.00008988, -0.00781296, 0.00807619, 0.00229701, 0.00525325, -0.00574717, -0.00379751, -0.00290182, 0.00018300, -0.00061893, -0.00932608, 0.00292288, 0.00089776, -0.00517648, 0.00273905, -0.00714601, 0.00342547, -0.00582006, 0.00295378, -0.00643786, 0.00310506, 0.00135931, -0.00692672, 0.00149406, -0.00404528, -0.00379827, -0.00718295, 0.00481315, 0.00079451, -0.00769983, -0.00000256, -0.00743225, -0.00576679, 0.00094186, 0.00339237},
  {-0.00001755, 0.00045936, -0.00508804, 0.01124880, 0.00164885, 0.00026976, -0.00139330, -0.00547381, -0.00015994, -0.00571224, 0.00669102, -0.00331395, 0.00456181, -0.00499775, 0.00190028, 0.00162927, -0.00082345, -0.00110945, 0.00088585, -0.00255449, 0.00007257, 0.01040809, -0.01090450, -0.00059549, -0.00561651, -0.00607450, -0.00300303, -0.00321473, -0.00136902, 0.00259098, 0.00221629, -0.00274781, -0.01029968, 0.00005960, 0.01246339, 0.00399782, -0.00376977, -0.01169560, 0.01618974, 0.00582840, -0.00020722, 0.00087186, -0.01026957, 0.00176976, -0.00049916, 0.00335323, -0.00092665, 0.01039839, -0.00318136, -0.00240569, 0.00104942, 0.01586020, -0.00040962, 0.00125902, 0.01627387, 0.00155853, 0.00006960, -0.00183237, -0.00178221, -0.01130342, 0.00886582, -0.00158736, -0.01017514, 0.00206800},
  {-0.00078579, 0.00198349, -0.00035803, -0.00739873, 0.00299534, -0.00830405, -0.00935878, 0.00432837, -0.00678531, -0.00364912, -0.00135992, -0.00113710, -0.00523500, 0.00314218, -0.00740478, 0.00331855, 0.00640739, -0.00291560, -0.00057459, 0.00347521, 0.00601731, -0.00218431, 0.00458097, -0.00275682, 0.00448910, 0.00450199, 0.00238073, -0.00241241, 0.00560802, 0.00424254, -0.00443169, -0.00157750, 0.00610385, -0.00894036, -0.00554019, -0.00389723, 0.00018702, 0.00388156, -0.00227050, -0.00589973, 0.00514305, 0.00518824, 0.00435112, 0.00501802, -0.00884202, 0.00443242, -0.00670220, -0.00171981, -0.00681547, 0.00658604, 0.00576610, -0.00574444, 0.00630754, -0.00457361, -0.00490929, -0.00424641, -0.00574246, 0.00537558, -0.00374010, 0.00441021, -0.00491109, -0.00526497, 0.00401827, 0.00298850},
